<?xml version="1.0"?>
<opencv_storage>
<opencv_ml_svm>
  <format>3</format>
  <svmType>NU_SVC</svmType>
  <kernel>
    <type>LINEAR</type></kernel>
  <nu>1.0000000000000001e-01</nu>
  <term_criteria><iterations>25</iterations></term_criteria>
  <var_count>4900</var_count>
  <class_count>9</class_count>
  <class_labels type_id="opencv-matrix">
    <rows>9</rows>
    <cols>1</cols>
    <dt>i</dt>
    <data>
      0 1 2 3 4 5 6 7 8</data></class_labels>
  <sv_total>36</sv_total>
  <support_vectors>
    <_>
      0. 0. 0. 0. 0. 0. 0. 0. 0. 0. 0. 0. 0. 0. 0. 0. 0. 0. 0. 0. 0. 0.
      0. 0. 0. 0. 0. 0. 0. 0. 0. 0. 0. 0. 0. 0. 0. 0. 0. 0. 0. 0. 0. 0.
      0. 0. 0. 0. 0. 0. 0. 0. 0. 0. 0. 0. 0. 0. 0. 0. 0. 0. 0. 0. 0. 0.
      0. 0. 0. 0. 0. 0. 0. 0. 0. 0. 0. 0. 0. 0. 0. 0. 0. 0. 0. 0. 0. 0.
      0. 0. 0. 0. 0. 0. 0. 0. 0. 0. 0. 0. 0. 0. 0. 0. 0. 0. 0. 0. 0. 0.
      0. 0. 0. 0. 0. 0. 0. 0. 0. 0. 0. 0. 0. 0. 0. 0. 0. 0. 0. 0. 0. 0.
      0. 0. 0. 0. 0. 0. 0. 0. 0. 0. 0. 0. 0. 0. 0. 0. 0. 0. 0. 0. 0. 0.
      0. 0. 0. 0. 0. 0. 0. 0. 0. 0. 0. 0. 0. 0. 0. 0. 0. 0. 0. 0. 0. 0.
      0. 0. 0. 0. 0. 0. 0. 0. 0. 0. 0. 0. 0. 0. 0. 0. 0. 0. 0. 0. 0. 0.
      0. 0. 0. 0. 0. 0. 0. 0. 0. 0. 0. 0. 0. 0. 0. 0. 0. 0. 0. 0. 0. 0.
      0. 0. 0. 0. 0. 0. 0. 0. 0. 0. 0. 0. 0. 0. 0. 0. 0. 0. 0. 0. 0. 0.
      0. 0. 0. 0. 0. 0. 0. 0. 0. 0. 0. 0. 0. 0. 0. 0. 0. 0. 0. 0. 0. 0.
      0. 0. 0. 0. 0. 0. 0. 0. 0. 0. 0. 0. 0. 0. 0. 0. 0. 0. 0. 0. 0. 0.
      0. 0. 0. 0. 0. 0. 0. 0. 0. 0. 0. 0. 0. 0. 0. 0. 0. 0. 0. 0. 0. 0.
      0. 0. 0. 0. 0. 0. 0. 0. 0. 0. 0. 0. 0. 0. 0. 0. 0. 0. 0. 0. 0. 0.
      0. 0. 0. 0. 0. 0. 0. 0. 0. 0. 0. 0. 0. 0. 0. 0. 0. 0. 0. 0. 0. 0.
      0. 0. 0. 0. 0. 0. 0. 0. 0. 0. 0. 0. 0. 0. 0. 0. 0. 0. 0. 0. 0. 0.
      0. 0. 0. 0. 0. 0. 0. 0. 0. 0. 0. 0. 0. 0. 0. 0. 0. 0. 0. 0. 0. 0.
      0. 0. 0. 0. 0. 0. 0. 0. 0. 0. 0. 0. 0. 0. 0. 0. 0. 0. 0. 0. 0. 0.
      0. 0. 0. 0. 0. 0. 0. 0. 0. 0. 0. 0. 0. 0. 0. 0. 0. 0. 0. 0. 0. 0.
      0. 0. 0. 0. 0. 0. 0. 0. 0. 0. 0. 0. 0. 0. 0. 0. 0. 0. 0. 0. 0. 0.
      0. 0. 0. 0. 0. 0. 0. 0. 0. 0. 0. 0. 0. 0. 0. 0. 0. 0. 0. 0. 0. 0.
      0. 0. 0. 0. 0. 0. 0. 0. 0. 0. 0. 0. 0. 0. 0. 0. 0. 0. 0. 0. 0. 0.
      0. 0. 0. 0. 0. 0. 0. 0. 0. 0. 0. 0. 0. 0. 0. 0. 0. 0. 0. 0. 0. 0.
      0. 0. 0. 0. 0. 0. 0. 0. 0. 0. 0. 0. 0. 0. 0. 0. 0. 0. 0. 0. 0. 0.
      0. 0. 0. 0. 0. 0. 0. 0. 0. 0. 0. 0. 0. 0. 0. 0. 0. 0. 0. 0. 0. 0.
      0. 0. 0. 0. 0. 0. 0. 0. 0. 0. 0. 0. 0. 0. 0. 0. 0. 0. 0. 0. 0. 0.
      0. 0. 0. 0. 0. 0. 0. 0. 0. 0. 0. 0. 0. 0. 0. 0. 0. 0. 0. 0. 0. 0.
      0. 0. 0. 0. 0. 0. 0. 0. 0. 0. 0. 0. 0. 0. 0. 0. 0. 0. 0. 0. 0. 0.
      0. 0. 0. 0. 0. 0. 0. 0. 0. 0. 0. 0. 0. 0. 0. 0. 0. 0. 0. 0. 0. 0.
      0. 0. 0. 0. 0. 0. 0. 0. 0. 0. 0. 0. 0. 0. 0. 0. 0. 0. 0. 0. 0. 0.
      0. 0. 0. 0. 0. 0. 0. 0. 0. 0. 0. 0. 0. 0. 0. 0. 0. 0. 0. 0. 0. 0.
      0. 0. 0. 0. 0. 0. 0. 0. 0. 0. 0. 0. 0. 0. 0. 0. 0. 0. 0. 0. 0. 0.
      0. 0. 0. 0. 0. 0. -3.97397116e-07 -3.97397116e-07 -3.97397116e-07
      -3.97397116e-07 -3.97397116e-07 0. 0. 0. 3.63345112e-06
      3.63345112e-06 3.63345112e-06 0. 0. 0. 0. 0. 0. 0. 0. 0. 0. 0. 0.
      0. 0. 0. 0. 0. 0. 0. 0. 0. 0. 0. 0. 0. 0. 0. 0. 0. 0. 0. 0. 0. 0.
      0. 0. 0. 0. 0. 0. 0. 0. 0. 0. 0. 0. 0. 0. 0. 0. 0. 0. 0. 0. 0.
      -3.97397116e-07 -3.97397116e-07 -3.97397116e-07 -3.97397116e-07
      -2.99115436e-06 -2.99115436e-06 -3.97397116e-07 -7.51380912e-06
      -2.99115436e-06 -2.99115436e-06 6.42296925e-07 6.48773494e-06
      9.47888930e-06 9.47888930e-06 9.47888930e-06 4.51715732e-06
      3.63345112e-06 0. 0. 0. 0. 0. 0. 0. 0. 0. 0. 0. 0. 0. 0. 0. 0. 0.
      0. 0. 0. 0. 0. 0. 0. 0. 0. 0. 0. 0. 0. 0. 0. 0. 0. 0. 0. 0. 0. 0.
      0. 0. 0. 0. 0. 0. 0. 0. 0. 0. 0. -3.97397116e-07 -3.97397116e-07
      -3.97397116e-07 -3.97397116e-07 -2.99115436e-06 -2.99115436e-06
      -7.51380912e-06 -7.51380912e-06 -7.51380912e-06 -7.51380912e-06
      -7.51380912e-06 -7.51380912e-06 -2.99665180e-06 1.96508017e-06
      6.49521780e-06 1.10178726e-05 1.14152699e-05 1.14152699e-05
      4.51715732e-06 4.51715732e-06 0. 0. 0. 0. 0. 0. 0. 0. 0. 0. 0. 0.
      0. 0. 0. 0. 0. 0. 0. 0. 0. 0. 0. 0. 0. 0. 0. 0. 0. 0. 0. 0. 0. 0.
      0. 0. 0. 0. 0. 0. 0. 0. 0. 0. 0. 0. 0. 0. 0. -3.97397116e-07
      -3.97397116e-07 -2.99115436e-06 -2.99115436e-06 -7.51380912e-06
      -7.51380912e-06 -7.51380912e-06 -1.92036059e-05 -1.92036059e-05
      -1.66227437e-05 -1.66227437e-05 -1.24467551e-05 -1.55701546e-05
      1.96508017e-06 -5.19457944e-06 6.49521780e-06 6.49521780e-06
      6.49521780e-06 6.49521780e-06 6.48773494e-06 4.51715732e-06 0. 0.
      0. 0. 0. 0. 0. 0. 0. 0. 0. 0. 0. 0. 0. 0. 0. 0. 0. 0. 0. 0. 0. 0.
      0. 0. 0. 0. 0. 0. 0. 0. 0. 0. 0. 0. 0. 0. 0. 0. 0. 0. 0. 0. 0. 0.
      0. 0. -3.97397116e-07 -3.97397116e-07 -3.97397116e-07
      -7.16714248e-06 -2.33795945e-05 -2.33795945e-05 -3.50693917e-05
      -3.50693917e-05 -2.83125410e-05 -2.83125410e-05 -2.52179270e-05
      -2.52179270e-05 -2.07007706e-05 -2.74576214e-05 -2.55905034e-05
      -1.68843762e-05 -5.19457944e-06 6.49521780e-06 6.49521780e-06
      6.49521780e-06 1.96508017e-06 1.52600285e-06 -2.59375724e-06 0. 0.
      0. 0. 0. 0. 0. 0. 0. 0. 0. 0. 0. 0. 0. 0. 0. 0. 0. 0. 0. 0. 0. 0.
      0. 0. 0. 0. 0. 0. 0. 0. 0. 0. 0. 0. 0. 0. 0. 0. 0. 0. 0. 0. 0.
      -3.97397116e-07 -3.97397116e-07 -3.97397116e-07 -4.92005165e-06
      -1.92036059e-05 -2.33795945e-05 -3.50693917e-05 -3.50693917e-05
      -3.50693917e-05 -3.50693917e-05 -2.83125410e-05 -2.52179270e-05
      -1.40090269e-05 -1.03755756e-05 -4.53013763e-06 -1.57390386e-05
      -1.79657509e-05 -2.10603648e-05 -2.10603648e-05 -2.10603648e-05
      -5.19457944e-06 6.49521780e-06 -2.99665180e-06 -2.99665180e-06
      -7.51380912e-06 -7.11641178e-06 0. 0. 0. 0. 0. 0. 0. 0. 0. 0. 0.
      0. 0. 0. 0. 0. 0. 0. 0. 0. 0. 0. 0. 0. 0. 0. 0. 0. 0. 0. 0. 0. 0.
      0. 0. 0. 0. 0. 0. 0. 0. 0. 0. -3.97397116e-07 -3.97397116e-07
      -3.97397116e-07 -1.46809516e-05 -2.33795945e-05 -2.33795945e-05
      -3.50693917e-05 -3.50693917e-05 -3.50693917e-05 -1.67062444e-05
      -1.67062444e-05 -1.36116296e-05 -1.36116296e-05 -1.10178726e-05
      -6.50071524e-06 -1.53898338e-06 -1.08115028e-05 -8.21774574e-06
      -8.61514309e-06 -2.10603648e-05 -2.10603648e-05 -2.10603648e-05
      -9.37056757e-06 1.96508017e-06 -2.99665180e-06 -6.63010314e-06
      -7.11641178e-06 -2.59375724e-06 0. 0. 0. 0. 0. 0. 0. 0. 0. 0. 0.
      0. 0. 0. 0. 0. 0. 0. 0. 0. 0. 0. 0. 0. 0. 0. 0. 0. 0. 0. 0. 0. 0.
      0. 0. 0. 0. 0. 0. 0. 0. 0. -3.97397116e-07 -3.97397116e-07
      -2.99115436e-06 -2.33795945e-05 -3.50693917e-05 -3.50693917e-05
      -3.50693917e-05 -2.38604916e-05 -1.71036409e-05 -1.36116296e-05
      -1.36116296e-05 -6.49521780e-06 -6.49521780e-06 -5.61151182e-06
      2.98367127e-06 7.51380912e-06 -3.69509121e-06 -3.69509121e-06
      -1.04519422e-05 -1.35465561e-05 -2.10603648e-05 -2.10603648e-05
      -2.10603648e-05 -9.37056757e-06 -1.46864495e-05 -6.63010314e-06
      -7.51380912e-06 -7.11641178e-06 -2.59375724e-06 0. 0. 0. 0. 0. 0.
      0. 0. 0. 0. 0. 0. 0. 0. 0. 0. 0. 0. 0. 0. 0. 0. 0. 0. 0. 0. 0. 0.
      0. 0. 0. 0. 0. 0. 0. 0. 0. 0. 0. 0. 0. -3.97397116e-07
      -3.97397116e-07 -1.16897972e-05 -2.33795945e-05 -2.38604916e-05
      -1.71036409e-05 -1.67062444e-05 -1.67062444e-05 -1.36116296e-05
      -6.49521780e-06 -6.49521780e-06 -6.49779793e-07 2.98367127e-06
      1.92036059e-05 1.92036059e-05 1.92036059e-05 7.99470581e-06
      -3.69509121e-06 -1.04519422e-05 -1.35465561e-05 -1.35465561e-05
      -2.06629684e-05 -2.10603648e-05 -1.43322995e-05 -1.46864495e-05
      -7.51380912e-06 -7.51380912e-06 -7.51380912e-06 -7.11641178e-06 0.
      0. 0. 0. 0. 0. 0. 0. 0. 0. 0. 0. 0. 0. 0. 0. 0. 0. 0. 0. 0. 0. 0.
      0. 0. 0. 0. 0. 0. 0. 0. 0. 0. 0. 0. 0. 0. 0. 0. 0. 0.
      -3.97397116e-07 -4.92005165e-06 -1.16897972e-05 -1.21706944e-05
      -1.71036409e-05 -1.71036409e-05 -1.36116296e-05 -1.36116296e-05
      6.71924795e-07 -1.83833242e-06 1.48131967e-05 1.51543654e-05
      1.93303549e-05 3.50693917e-05 3.50693917e-05 3.08934032e-05
      7.99470581e-06 7.99470581e-06 -1.35465561e-05 -1.35465561e-05
      -1.35465561e-05 -1.35465561e-05 -1.65377114e-05 -2.60220968e-05
      -1.88624381e-05 -1.92036059e-05 -7.51380912e-06 -7.51380912e-06
      -7.11641178e-06 0. 0. 0. 0. 0. 0. 0. 0. 0. 0. 0. 0. 0. 0. 0. 0. 0.
      0. 0. 0. 0. 0. 0. 0. 0. 0. 0. 0. 0. 0. 0. 0. 0. 0. 0. 0. 0. 0. 0.
      0. 0. -3.97397116e-07 -4.92005165e-06 -7.51380912e-06
      -1.16897972e-05 -2.83125410e-05 -2.48205306e-05 -1.31307324e-05
      -1.31307324e-05 1.34849161e-05 1.84466480e-05 1.62357392e-05
      2.07658777e-05 2.38604916e-05 3.50693917e-05 3.50693917e-05
      3.50693917e-05 2.38604916e-05 7.99470581e-06 -1.35465561e-05
      -1.35465561e-05 -1.35465561e-05 -1.35465561e-05 -1.39439535e-05
      -2.10603648e-05 -3.05522335e-05 -1.92036059e-05 -7.51380912e-06
      -7.51380912e-06 -7.11641178e-06 -2.59375724e-06 0. 0. 0. 0. 0. 0.
      0. 0. 0. 0. 0. 0. 0. 0. 0. 0. 0. 0. 0. 0. 0. 0. 0. 0. 0. 0. 0. 0.
      0. 0. 0. 0. 0. 0. 0. 0. 0. 0. 0. 0. -3.97397116e-07
      -7.51380912e-06 -7.51380912e-06 -7.56958173e-07 2.33765604e-06
      -8.95474386e-06 2.73505316e-06 1.34849161e-05 1.16897972e-05
      9.47888930e-06 9.47888930e-06 2.07658777e-05 2.07658777e-05
      3.50693917e-05 3.50693917e-05 3.50693917e-05 2.38604916e-05
      2.38604916e-05 4.90009188e-06 -1.35465561e-05 -1.35465561e-05
      -1.35465561e-05 -1.39439535e-05 -1.84666078e-05 -3.05522335e-05
      -1.83199008e-05 -7.51380912e-06 -7.51380912e-06 -7.11641178e-06
      -7.11641178e-06 0. 0. 0. 0. 0. 0. 0. 0. 0. 0. 0. 0. 0. 0. 0. 0. 0.
      0. 0. 0. 0. 0. 0. 0. 0. 0. 0. 0. 0. 0. 0. 0. 0. 0. 0. 0. 0. 0. 0.
      0. -2.99115436e-06 -7.51380912e-06 -7.51380912e-06 -7.56958173e-07
      -7.56958173e-07 6.36850427e-06 1.17748650e-05 1.40090269e-05
      1.40090269e-05 1.40090269e-05 1.40090269e-05 1.40090269e-05
      1.40090269e-05 3.50693917e-05 3.50693917e-05 3.50693917e-05
      1.43686220e-05 1.88987597e-05 1.23785526e-06 -1.85675890e-06
      -1.35465561e-05 -1.35465561e-05 -1.39439535e-05 -2.34358231e-05
      -2.79584783e-05 -1.92036059e-05 -7.51380912e-06 -7.51380912e-06
      -7.11641178e-06 -7.11641178e-06 -2.59375724e-06 0. 0. 0. 0. 0. 0.
      0. 0. 0. 0. 0. 0. 0. 0. 0. 0. 0. 0. 0. 0. 0. 0. 0. 0. 0. 0. 0. 0.
      0. 0. 0. 0. 0. 0. 0. 0. 0. 0. -3.97397116e-07 -4.92005165e-06
      -7.51380912e-06 -7.51380912e-06 -7.51380912e-06 -7.11641178e-06
      4.95359416e-07 6.45353748e-06 1.40090269e-05 1.40090269e-05
      1.40090269e-05 1.40090269e-05 1.40090269e-05 1.40090269e-05
      2.38604916e-05 2.55775230e-05 2.55775230e-05 1.43686220e-05
      1.93303549e-05 1.40090269e-05 -1.85675890e-06 -1.85675890e-06
      -1.35465561e-05 -1.35465561e-05 -2.34358231e-05 -2.79584783e-05
      -2.33795945e-05 -7.51380912e-06 -7.51380912e-06 -7.11641178e-06
      -7.11641178e-06 -2.59375724e-06 0. 0. 0. 0. 0. 0. 0. 0. 0. 0. 0.
      0. 0. 0. 0. 0. 0. 0. 0. 0. 0. 0. 0. 0. 0. 0. 0. 0. 0. 0. 0. 0. 0.
      0. 0. 0. 0. 0. -3.97397116e-07 -4.92005165e-06 -4.52265476e-06
      -7.11641178e-06 -7.11641178e-06 -2.59925469e-06 1.92340008e-06
      6.88513228e-06 1.40090269e-05 1.40090269e-05 1.40090269e-05
      1.40090269e-05 1.40090269e-05 1.71036409e-05 2.55775230e-05
      2.55775230e-05 2.55775230e-05 2.55775230e-05 1.93303549e-05
      1.40090269e-05 -1.85675890e-06 -1.85675890e-06 -1.35465561e-05
      -1.39439535e-05 -2.34358231e-05 -3.05522335e-05 -2.33795945e-05
      -7.51380912e-06 -7.51380912e-06 -7.51380912e-06 -7.11641178e-06
      -2.59375724e-06 0. 0. 0. 0. 0. 0. 0. 0. 0. 0. 0. 0. 0. 0. 0. 0. 0.
      0. 0. 0. 0. 0. 0. 0. 0. 0. 0. 0. 0. 0. 0. 0. 0. 0. 0. 0. 0. 0. 0.
      0. -4.52265476e-06 -4.52265476e-06 -4.52265476e-06 -6.23270580e-06
      -2.59925469e-06 6.88513228e-06 1.40090269e-05 1.40090269e-05
      1.40090269e-05 1.40090269e-05 9.04729495e-06 7.61177125e-06
      1.43686220e-05 2.10603648e-05 2.10603648e-05 1.43686220e-05
      1.93303549e-05 1.40090269e-05 -1.85675890e-06 -1.35465561e-05
      -1.35465561e-05 -1.39439535e-05 -2.34358231e-05 -3.05522335e-05
      -2.33795945e-05 -7.51380912e-06 -7.51380912e-06 -7.51380912e-06
      -2.59375724e-06 -2.59375724e-06 0. 0. 0. 0. 0. 0. 0. 0. 0. 0. 0.
      0. 0. 0. 0. 0. 0. 0. 0. 0. 0. 0. 0. 0. 0. 0. 0. 0. 0. 0. 0. 0. 0.
      0. 0. 0. 0. 0. 0. 0. 0. 0. 0. 8.83705980e-07 4.51715732e-06
      9.04729495e-06 1.40090269e-05 9.04729495e-06 9.04729495e-06
      9.04729495e-06 4.51715732e-06 1.07351707e-05 9.85146471e-06
      2.10603648e-05 2.10603648e-05 1.43686220e-05 1.93303549e-05
      2.07658777e-05 -1.85675890e-06 -1.35465561e-05 -1.35465561e-05
      -1.39439535e-05 -1.39439535e-05 -3.05522335e-05 -2.33795945e-05
      -7.51380912e-06 -7.51380912e-06 -7.51380912e-06 -2.59375724e-06
      -2.59375724e-06 0. 0. 0. 0. 0. 0. 0. 0. 0. 0. 0. 0. 0. 0. 0. 0. 0.
      0. 0. 0. 0. 0. 0. 0. 0. 0. 0. 0. 0. 0. 0. 0. 0. 0. 0. 0. 0. 0. 0.
      0. 0. 0. 0. 4.51715732e-06 4.51715732e-06 9.04729495e-06
      9.04729495e-06 9.04729495e-06 4.51715732e-06 4.51715732e-06
      8.83705980e-07 0. 2.10603648e-05 2.10603648e-05 2.10603648e-05
      1.43686220e-05 1.43686220e-05 9.07608046e-06 -1.85675890e-06
      -1.35465561e-05 -1.39439535e-05 -1.39439535e-05 -1.39439535e-05
      -3.05522335e-05 -3.50693917e-05 -1.92036059e-05 -7.51380912e-06
      -7.11641178e-06 -4.52265476e-06 0. 0. 0. 0. 0. 0. 0. 0. 0. 0. 0.
      0. 0. 0. 0. 0. 0. 0. 0. 0. 0. 0. 0. 0. 0. 0. 0. 0. 0. 0. 0. 0. 0.
      0. 0. 0. 0. 0. 0. 0. 0. 0. 0. 0. 8.83705980e-07 4.51715732e-06
      4.51715732e-06 4.51715732e-06 4.51715732e-06 3.63345112e-06
      3.63345112e-06 0. 0. 2.10603648e-05 2.10603648e-05 2.10603648e-05
      2.55775230e-05 1.93303549e-05 2.31922945e-06 2.31922945e-06
      -1.39439535e-05 -1.39439535e-05 -1.39439535e-05 -1.39439535e-05
      -3.05522335e-05 -3.50693917e-05 -1.92036059e-05 -7.51380912e-06
      -7.11641178e-06 -4.52265476e-06 0. 0. 0. 0. 0. 0. 0. 0. 0. 0. 0.
      0. 0. 0. 0. 0. 0. 0. 0. 0. 0. 0. 0. 0. 0. 0. 0. 0. 0. 0. 0. 0. 0.
      0. 0. 0. 0. 0. 0. 0. 0. 0. 0. 0. 0. 8.83705980e-07 4.51715732e-06
      4.51715732e-06 0. 0. 0. 0. 0. 2.10603648e-05 2.10603648e-05
      2.10603648e-05 2.19440717e-05 1.43686220e-05 5.41384361e-06
      -1.85675890e-06 -1.39439535e-05 -1.39439535e-05 -1.39439535e-05
      -2.10603648e-05 -3.05522335e-05 -1.55701546e-05 -7.51380912e-06
      -7.51380912e-06 -7.11641178e-06 0. 0. 0. 0. 0. 0. 0. 0. 0. 0. 0.
      0. 0. 0. 0. 0. 0. 0. 0. 0. 0. 0. 0. 0. 0. 0. 0. 0. 0. 0. 0. 0. 0.
      0. 0. 0. 0. 0. 0. 0. 0. 0. 0. 0. 0. 0. 0. 3.63345112e-06 0. 0. 0.
      0. 0. 0. 9.85146471e-06 2.10603648e-05 2.10603648e-05
      2.19440717e-05 1.43686220e-05 1.23785526e-06 -1.35465561e-05
      -1.39439535e-05 -1.39439535e-05 -2.10603648e-05 -2.10603648e-05
      -1.88624381e-05 -3.88035778e-06 -7.51380912e-06 -7.11641178e-06
      -7.11641178e-06 0. 0. 0. 0. 0. 0. 0. 0. 0. 0. 0. 0. 0. 0. 0. 0. 0.
      0. 0. 0. 0. 0. 0. 0. 0. 0. 0. 0. 0. 0. 0. 0. 0. 0. 0. 0. 0. 0. 0.
      0. 0. 0. 0. 0. 0. 0. 0. 0. 0. 0. 0. 0. 0. 0. 9.85146471e-06
      2.10603648e-05 2.10603648e-05 2.19440717e-05 2.38604916e-05
      1.23785526e-06 -1.35465561e-05 -1.39439535e-05 -1.65377114e-05
      -2.10603648e-05 -2.10603648e-05 -1.88624381e-05 -3.88035778e-06
      -7.11641178e-06 -7.11641178e-06 -4.52265476e-06 0. 0. 0. 0. 0. 0.
      0. 0. 0. 0. 0. 0. 0. 0. 0. 0. 0. 0. 0. 0. 0. 0. 0. 0. 0. 0. 0. 0.
      0. 0. 0. 0. 0. 0. 0. 0. 0. 0. 0. 0. 0. 0. 0. 0. 0. 0. 0. 0. 0. 0.
      0. 0. 0. 0. 9.85146471e-06 2.10603648e-05 2.10603648e-05
      1.43686220e-05 7.64055676e-06 -4.09248833e-06 -1.39439535e-05
      -1.65377114e-05 -2.10603648e-05 -2.10603648e-05 -2.10603648e-05
      -7.17264038e-06 -3.88035778e-06 -7.11641178e-06 -7.11641178e-06
      -4.52265476e-06 0. 0. 0. 0. 0. 0. 0. 0. 0. 0. 0. 0. 0. 0. 0. 0. 0.
      0. 0. 0. 0. 0. 0. 0. 0. 0. 0. 0. 0. 0. 0. 0. 0. 0. 0. 0. 0. 0. 0.
      0. 0. 0. 0. 0. 0. 0. 0. 0. 0. 0. 0. 0. 0. 0. 9.85146471e-06
      2.10603648e-05 2.10603648e-05 1.38877249e-05 3.46456841e-06
      -4.09248833e-06 -1.65377114e-05 -2.10603648e-05 -2.10603648e-05
      -2.10603648e-05 -1.43322995e-05 -2.99665180e-06 -3.48296066e-06
      -7.11641178e-06 0. 0. 0. 0. 0. 0. 0. 0. 0. 0. 0. 0. 0. 0. 0. 0. 0.
      0. 0. 0. 0. 0. 0. 0. 0. 0. 0. 0. 0. 0. 0. 0. 0. 0. 0. 0. 0. 0. 0.
      0. 0. 0. 0. 0. 0. 0. 0. 0. 0. 0. 0. 0. 0. 0. 0. 0. 2.10603648e-05
      2.10603648e-05 1.02542735e-05 1.38877249e-05 -4.09248833e-06
      -6.68624534e-06 -1.65377114e-05 -2.10603648e-05 -2.10603648e-05
      -9.37056757e-06 -2.64250252e-06 -2.99665180e-06 -3.48296066e-06
      -7.11641178e-06 0. 0. 0. 0. 0. 0. 0. 0. 0. 0. 0. 0. 0. 0. 0. 0. 0.
      0. 0. 0. 0. 0. 0. 0. 0. 0. 0. 0. 0. 0. 0. 0. 0. 0. 0. 0. 0. 0. 0.
      0. 0. 0. 0. 0. 0. 0. 0. 0. 0. 0. 0. 0. 0. 0. 0. 0. 2.10603648e-05
      2.10603648e-05 1.02542735e-05 9.31433988e-06 -1.12163834e-05
      -1.12089001e-05 -2.10603648e-05 -2.10603648e-05 -9.37056757e-06
      -9.37056757e-06 -7.17264038e-06 -2.59925469e-06 1.03969398e-06 0.
      0. 0. 0. 0. 0. 0. 0. 0. 0. 0. 0. 0. 0. 0. 0. 0. 0. 0. 0. 0. 0. 0.
      0. 0. 0. 0. 0. 0. 0. 0. 0. 0. 0. 0. 0. 0. 0. 0. 0. 0. 0. 0. 0. 0.
      0. 0. 0. 0. 0. 0. 0. 0. 0. 0. 0. 0. 2.10603648e-05 2.10603648e-05
      -2.71662657e-06 -1.98115667e-05 -1.57390386e-05 -1.43035140e-05
      -2.10603648e-05 -2.10603648e-05 -9.37056757e-06 6.49521780e-06
      -2.59925469e-06 -2.59925469e-06 0. 0. 0. 0. 0. 0. 0. 0. 0. 0. 0.
      0. 0. 0. 0. 0. 0. 0. 0. 0. 0. 0. 0. 0. 0. 0. 0. 0. 0. 0. 0. 0. 0.
      0. 0. 0. 0. 0. 0. 0. 0. 0. 0. 0. 0. 0. 0. 0. 0. 0. 0. 0. 0. 0. 0.
      0. 0. 0. 2.10603648e-05 -2.71662657e-06 -9.48637171e-06
      -2.07007706e-05 -1.57390386e-05 -1.43035140e-05 -2.10603648e-05
      -2.10603648e-05 -9.37056757e-06 6.89261515e-06 9.48637171e-06
      3.63345112e-06 3.63345112e-06 0. 0. 0. 0. 0. 0. 0. 0. 0. 0. 0. 0.
      0. 0. 0. 0. 0. 0. 0. 0. 0. 0. 0. 0. 0. 0. 0. 0. 0. 0. 0. 0. 0. 0.
      0. 0. 0. 0. 0. 0. 0. 0. 0. 0. 0. 0. 0. 0. 0. 0. 0. 0. 0. 0. 0. 0.
      -3.97397116e-07 2.06629684e-05 -6.89261515e-06 -1.40090269e-05
      -2.07007706e-05 -1.57390386e-05 -1.43035140e-05 -9.37056757e-06
      -5.19457944e-06 6.89261515e-06 9.48637171e-06 1.40090269e-05
      3.63345112e-06 3.63345112e-06 0. 0. 0. 0. 0. 0. 0. 0. 0. 0. 0. 0.
      0. 0. 0. 0. 0. 0. 0. 0. 0. 0. 0. 0. 0. 0. 0. 0. 0. 0. 0. 0. 0. 0.
      0. 0. 0. 0. 0. 0. 0. 0. 0. 0. 0. 0. 0. 0. 0. 0. 0. 0. 0. 0. 0.
      -3.97397116e-07 -3.97397116e-07 -2.06952718e-05 -1.40090269e-05
      -1.40090269e-05 -2.43342220e-05 -1.57390386e-05 -2.61371702e-06
      -9.37056757e-06 6.89261515e-06 6.89261515e-06 1.40090269e-05
      9.47888930e-06 4.51715732e-06 3.63345112e-06 0. 0. 0. 0. 0. 0. 0.
      0. 0. 0. 0. 0. 0. 0. 0. 0. 0. 0. 0. 0. 0. 0. 0. 0. 0. 0. 0. 0. 0.
      0. 0. 0. 0. 0. 0. 0. 0. 0. 0. 0. 0. 0. 0. 0. 0. 0. 0. 0. 0. 0. 0.
      0. 0. 0. -3.97397116e-07 -3.97397116e-07 -2.79529795e-05
      -2.52179270e-05 -1.40090269e-05 -1.40090269e-05 -2.43342220e-05
      -1.57390386e-05 -2.21631990e-06 6.89261515e-06 6.89261515e-06
      1.40090269e-05 1.40090269e-05 4.51715732e-06 4.51715732e-06
      3.63345112e-06 0. 0. 0. 0. 0. 0. 0. 0. 0. 0. 0. 0. 0. 0. 0. 0. 0.
      0. 0. 0. 0. 0. 0. 0. 0. 0. 0. 0. 0. 0. 0. 0. 0. 0. 0. 0. 0. 0. 0.
      0. 0. 0. 0. 0. 0. 0. 0. 0. 0. 0. 0. 0. 0. -3.97397116e-07
      -3.97397116e-07 -1.88569393e-05 -3.50693917e-05 -1.40090269e-05
      -1.40090269e-05 -1.31253209e-05 -2.43342220e-05 -1.57390386e-05
      1.36494655e-05 1.14152699e-05 1.40090269e-05 1.40090269e-05
      1.40090269e-05 4.51715732e-06 4.51715732e-06 3.63345112e-06 0. 0.
      0. 0. 0. 0. 0. 0. 0. 0. 0. 0. 0. 0. 0. 0. 0. 0. 0. 0. 0. 0. 0. 0.
      0. 0. 0. 0. 0. 0. 0. 0. 0. 0. 0. 0. 0. 0. 0. 0. 0. 0. 0. 0. 0. 0.
      0. 0. 0. 0. 0. -3.97397116e-07 -3.97397116e-07 -3.97397116e-07
      -1.46809516e-05 -3.50693917e-05 -3.50693917e-05 -2.07658777e-05
      -1.40090269e-05 -1.27279236e-05 -1.22470265e-05 7.25221025e-06
      1.93378364e-05 1.40090269e-05 1.40090269e-05 1.40090269e-05
      1.40090269e-05 4.51715732e-06 4.51715732e-06 3.63345112e-06 0. 0.
      0. 0. 0. 0. 0. 0. 0. 0. 0. 0. 0. 0. 0. 0. 0. 0. 0. 0. 0. 0. 0. 0.
      0. 0. 0. 0. 0. 0. 0. 0. 0. 0. 0. 0. 0. 0. 0. 0. 0. 0. 0. 0. 0. 0.
      0. 0. 0. 0. -3.97397116e-07 -3.97397116e-07 -3.97397116e-07
      -1.92036059e-05 -3.50693917e-05 -3.50693917e-05 -3.50693917e-05
      -2.07658777e-05 -1.40090269e-05 -1.03812636e-06 3.61875914e-06
      9.84596772e-06 1.71036409e-05 1.40090269e-05 1.40090269e-05
      1.40090269e-05 1.40090269e-05 1.40090269e-05 4.51715732e-06
      3.63345112e-06 0. 0. 0. 0. 0. 0. 0. 0. 0. 0. 0. 0. 0. 0. 0. 0. 0.
      0. 0. 0. 0. 0. 0. 0. 0. 0. 0. 0. 0. 0. 0. 0. 0. 0. 0. 0. 0. 0. 0.
      0. 0. 0. 0. 0. 0. 0. 0. 0. 0. -3.97397116e-07 -3.97397116e-07
      -2.99115436e-06 -2.33795945e-05 -2.33795945e-05 -3.50693917e-05
      -3.50693917e-05 -3.50693917e-05 -2.03684813e-05 -1.36116296e-05
      1.48276595e-05 1.74214165e-05 1.43686220e-05 2.07658777e-05
      1.40090269e-05 1.40090269e-05 1.40090269e-05 1.40090269e-05
      1.40090269e-05 4.51715732e-06 0. 0. 0. 0. 0. 0. 0. 0. 0. 0. 0. 0.
      0. 0. 0. 0. 0. 0. 0. 0. 0. 0. 0. 0. 0. 0. 0. 0. 0. 0. 0. 0. 0. 0.
      0. 0. 0. 0. 0. 0. 0. 0. 0. 0. 0. 0. 0. 0. -3.97397116e-07
      -3.97397116e-07 -3.97397116e-07 -2.99115436e-06 -2.33795945e-05
      -2.33795945e-05 -3.50693917e-05 -3.50693917e-05 -3.50693917e-05
      -3.50693917e-05 -3.15773796e-05 4.84791326e-06 2.10603648e-05
      2.19440717e-05 1.43686220e-05 2.07658777e-05 1.40090269e-05
      1.40090269e-05 1.40090269e-05 1.40090269e-05 1.40090269e-05
      4.51715732e-06 0. 0. 0. 0. 0. 0. 0. 0. 0. 0. 0. 0. 0. 0. 0. 0. 0.
      0. 0. 0. 0. 0. 0. 0. 0. 0. 0. 0. 0. 0. 0. 0. 0. 0. 0. 0. 0. 0. 0.
      0. 0. 0. 0. 0. 0. 0. 0. 0. -3.97397116e-07 -3.97397116e-07
      -1.46809516e-05 -2.33795945e-05 -2.33795945e-05 -3.50693917e-05
      -3.50693917e-05 -3.50693917e-05 -3.50693917e-05 -2.29821981e-05
      -1.98875841e-05 2.10603648e-05 2.10603648e-05 2.19440717e-05
      1.43686220e-05 2.07658777e-05 1.40090269e-05 1.40090269e-05
      1.40090269e-05 1.40090269e-05 9.04729495e-06 3.63345112e-06
      3.63345112e-06 0. 0. 0. 0. 0. 0. 0. 0. 0. 0. 0. 0. 0. 0. 0. 0. 0.
      0. 0. 0. 0. 0. 0. 0. 0. 0. 0. 0. 0. 0. 0. 0. 0. 0. 0. 0. 0. 0. 0.
      0. 0. 0. 0. 0. 0. -3.97397116e-07 -3.97397116e-07 -3.97397116e-07
      -2.99115436e-06 -2.33795945e-05 -3.50693917e-05 -3.50693917e-05
      -3.50693917e-05 -3.50693917e-05 -3.50693917e-05 -2.29821981e-05
      -2.03884410e-05 3.09461416e-06 2.10603648e-05 2.10603648e-05
      2.55775230e-05 1.43686220e-05 1.40090269e-05 1.40090269e-05
      1.40090269e-05 1.40090269e-05 1.40090269e-05 9.04729495e-06
      3.63345112e-06 3.63345112e-06 0. 0. 0. 0. 0. 0. 0. 0. 0. 0. 0. 0.
      0. 0. 0. 0. 0. 0. 0. 0. 0. 0. 0. 0. 0. 0. 0. 0. 0. 0. 0. 0. 0. 0.
      0. 0. 0. 0. 0. 0. 0. 0. 0. 0. 0. -3.97397116e-07 -3.97397116e-07
      -2.99115436e-06 -2.33795945e-05 -3.50693917e-05 -3.50693917e-05
      -3.50693917e-05 -3.50693917e-05 -3.50693917e-05 -3.50693917e-05
      -1.62124525e-05 0. 1.43035140e-05 2.10603648e-05 2.10603648e-05
      1.43686220e-05 1.43686220e-05 2.38604916e-05 1.40090269e-05
      1.40090269e-05 1.40090269e-05 1.40090269e-05 1.40090269e-05
      4.51715732e-06 3.63345112e-06 0. 0. 0. 0. 0. 0. 0. 0. 0. 0. 0. 0.
      0. 0. 0. 0. 0. 0. 0. 0. 0. 0. 0. 0. 0. 0. 0. 0. 0. 0. 0. 0. 0. 0.
      0. 0. 0. 0. 0. 0. 0. 0. 0. 0. 0. -3.97397116e-07 -2.99115436e-06
      -2.33795945e-05 -2.33795945e-05 -3.50693917e-05 -3.50693917e-05
      -3.50693917e-05 -3.46719935e-05 -3.20782383e-05 -3.20782383e-05
      -2.33795945e-05 0. 3.09461416e-06 2.10603648e-05 2.10603648e-05
      1.07351707e-05 1.43686220e-05 1.21706944e-05 2.07658777e-05
      1.40090269e-05 1.40090269e-05 1.40090269e-05 9.04729495e-06
      4.51715732e-06 3.63345112e-06 0. 0. 0. 0. 0. 0. 0. 0. 0. 0. 0. 0.
      0. 0. 0. 0. 0. 0. 0. 0. 0. 0. 0. 0. 0. 0. 0. 0. 0. 0. 0. 0. 0. 0.
      0. 0. 0. 0. 0. 0. 0. 0. 0. 0. 0. -2.99115436e-06 -7.51380912e-06
      -3.50693917e-05 -3.50693917e-05 -3.50693917e-05 -3.50693917e-05
      -3.50693917e-05 -3.20782383e-05 -2.75555831e-05 -2.07987323e-05
      -2.07987323e-05 -2.44609691e-05 -1.32520690e-05 9.37056757e-06
      9.37056757e-06 1.02542735e-05 2.67882479e-06 4.80897086e-07
      4.80897086e-07 -2.61371702e-06 9.07608046e-06 -2.61371702e-06
      -1.43322995e-05 -7.17264038e-06 -1.29892924e-05 0. -1.16897972e-05
      0. 0. 0. 0. 0. 0. 0. 0. 0. 0. 0. 0. 0. 0. 0. 0. 0. 0. 0. 0. 0. 0.
      0. 0. 0. 0. 0. 0. 0. 0. 0. 0. 0. 0. 0. 0. 0. 0. 0. 0. 0. 0.
      -3.97397116e-07 -7.51380912e-06 -2.33795945e-05 -3.50693917e-05
      -2.83125410e-05 -2.52179270e-05 -2.52179270e-05 -2.52179270e-05
      -2.22267736e-05 -1.77041184e-05 -1.77041184e-05 -1.77041184e-05
      -1.77041184e-05 -1.77041184e-05 -6.49521780e-06 -6.49521780e-06
      -5.61151182e-06 -1.97806071e-06 -8.65682341e-06 -3.69509121e-06
      -3.69509121e-06 4.41919474e-06 -6.78970537e-06 -3.69509121e-06
      -1.31869610e-05 -1.40706670e-05 -1.81015148e-05 -1.58657858e-05 0.
      0. 0. 0. 0. 0. 0. 0. 0. 0. 0. 0. 0. 0. 0. 0. 0. 0. 0. 0. 0. 0. 0.
      0. 0. 0. 0. 0. 0. 0. 0. 0. 0. 0. 0. 0. 0. 0. 0. 0. 0.
      -3.97397116e-07 -3.97397116e-07 -7.51380912e-06 -2.33795945e-05
      -3.50693917e-05 -1.40090269e-05 -1.40090269e-05 -2.52179270e-05
      -1.40090269e-05 -1.40090269e-05 -1.81015148e-05 -1.81015148e-05
      -6.89261515e-06 -6.89261515e-06 -9.48637171e-06 -9.48637171e-06
      -6.00890917e-06 -8.60266573e-06 -4.96921484e-06 4.52265476e-06
      -4.09248833e-06 7.11641178e-06 7.11641178e-06 7.11641178e-06
      7.11641178e-06 -5.85292082e-06 -5.85292082e-06 -2.06952718e-05
      -2.79529795e-05 -3.97397116e-07 0. 0. 0. 0. 0. 0. 0. 0. 0. 0. 0.
      0. 0. 0. 0. 0. 0. 0. 0. 0. 0. 0. 0. 0. 0. 0. 0. 0. 0. 0. 0. 0. 0.
      0. 0. 0. 0. 0. 0. 0. -3.97397116e-07 -2.99115436e-06
      -7.51380912e-06 -2.33795945e-05 -2.07658777e-05 -1.40090269e-05
      -1.40090269e-05 -1.40090269e-05 -1.40090269e-05 -1.40090269e-05
      -1.40090269e-05 -1.40090269e-05 -1.40090269e-05 -1.40090269e-05
      -1.40090269e-05 -1.40090269e-05 -1.31253209e-05 -1.31253209e-05
      -9.49186960e-06 3.38813179e-21 3.38813179e-21 3.38813179e-21
      3.38813179e-21 3.38813179e-21 3.38813179e-21 -1.03755756e-05
      -1.03755756e-05 -1.40090269e-05 -2.33795945e-05 -7.51380912e-06
      -7.11641178e-06 0. 0. 0. 0. 0. 0. 0. 0. 0. 0. 0. 0. 0. 0. 0. 0. 0.
      0. 0. 0. 0. 0. 0. 0. 0. 0. 0. 0. 0. 0. 0. 0. 0. 0. 0. 0. 0. 0. 0.
      -2.99115436e-06 -7.51380912e-06 -7.51380912e-06 -7.51380912e-06
      -2.02849806e-05 -2.07658777e-05 -1.40090269e-05 -1.40090269e-05
      -1.40090269e-05 -1.40090269e-05 -1.71036409e-05 -1.40090269e-05
      -1.40090269e-05 -1.40090269e-05 -1.40090269e-05 -1.40090269e-05
      -1.40090269e-05 -1.31253209e-05 -9.49186960e-06 3.38813179e-21
      3.38813179e-21 3.38813179e-21 3.38813179e-21 3.38813179e-21
      3.38813179e-21 -9.49186960e-06 -1.03755756e-05 -1.40090269e-05
      -1.16897972e-05 -7.51380912e-06 -4.52265476e-06 0. 0. 0. 0. 0. 0.
      0. 0. 0. 0. 0. 0. 0. 0. 0. 0. 0. 0. 0. 0. 0. 0. 0. 0. 0. 0. 0. 0.
      0. 0. 0. 0. 0. 0. 0. 0. 0. 0. 0. -2.99115436e-06 -7.51380912e-06
      -7.51380912e-06 -7.51380912e-06 -7.51380912e-06 -1.16897972e-05
      -1.16897972e-05 -1.16897972e-05 -4.93294647e-06 -1.35281298e-05
      -1.66227437e-05 -2.02849806e-05 -1.61089920e-05 -4.41919474e-06
      -1.92036059e-05 -2.33795945e-05 -4.93294647e-06 -4.04924049e-06
      8.83705980e-07 6.49521780e-06 2.31922945e-06 -9.37056757e-06
      -1.37897623e-05 -2.09996529e-06 9.07608046e-06 -7.17264038e-06
      -8.05634591e-06 -1.16897972e-05 -7.51380912e-06 -7.51380912e-06
      -7.11641178e-06 0. 0. 0. 0. 0. 0. 0. 0. 0. 0. 0. 0. 0. 0. 0. 0. 0.
      0. 0. 0. 0. 0. 0. 0. 0. 0. 0. 0. 0. 0. 0. 0. 0. 0. 0. 0. 0. 0. 0.
      -7.51380912e-06 -7.51380912e-06 -7.51380912e-06 -7.51380912e-06
      -7.51380912e-06 -7.51380912e-06 -7.51380912e-06 -7.51380912e-06
      -7.51380912e-06 -7.51380912e-06 -7.11641178e-06 -7.51380912e-06
      -7.51380912e-06 -7.51380912e-06 -7.51380912e-06 -7.51380912e-06
      -7.51380912e-06 -6.63010314e-06 -2.99665180e-06 6.49521780e-06
      6.49521780e-06 6.49521780e-06 6.49521780e-06 6.49521780e-06
      1.96508017e-06 -3.88035778e-06 -3.88035778e-06 -7.51380912e-06
      -7.51380912e-06 -7.51380912e-06 -7.51380912e-06 0. 0. 0. 0. 0. 0.
      0. 0. 0. 0. 0. 0. 0. 0. 0. 0. 0. 0. 0. 0. 0. 0. 0. 0. 0. 0. 0. 0.
      0. 0. 0. 0. 0. 0. 0. 0. 0. 0. 0. -2.59375724e-06 -7.51380912e-06
      -7.51380912e-06 -7.51380912e-06 -7.51380912e-06 -7.51380912e-06
      -7.51380912e-06 -7.51380912e-06 -7.51380912e-06 -7.51380912e-06
      -7.11641178e-06 -7.51380912e-06 -7.51380912e-06 -7.51380912e-06
      -7.51380912e-06 -7.51380912e-06 -7.51380912e-06 -6.63010314e-06
      -2.99665180e-06 1.53348583e-06 6.49521780e-06 6.49521780e-06
      6.49521780e-06 6.49521780e-06 -2.99665180e-06 -3.88035778e-06
      -3.88035778e-06 -7.51380912e-06 -7.51380912e-06 -7.51380912e-06
      -7.11641178e-06 0. 0. 0. 0. 0. 0. 0. 0. 0. 0. 0. 0. 0. 0. 0. 0. 0.
      0. 0. 0. 0. 0. 0. 0. 0. 0. 0. 0. 0. 0. 0. 0. 0. 0. 0. 0. 0. 0. 0.
      0. -2.59375724e-06 0. 0. -4.52265476e-06 -4.52265476e-06
      -4.52265476e-06 -2.59375724e-06 -3.97397116e-07 -4.52265476e-06
      -7.11641178e-06 -7.11641178e-06 0. 0. -2.59375724e-06
      -2.59375724e-06 -2.59375724e-06 -2.59375724e-06 8.83705980e-07
      -2.59925469e-06 -2.59925469e-06 4.51715732e-06 4.51715732e-06
      -5.49759038e-09 3.63345112e-06 -8.89203591e-07 -8.89203591e-07 0.
      -2.59375724e-06 -7.11641178e-06 -2.59375724e-06 0. 0. 0. 0. 0. 0.
      0. 0. 0. 0. 0. 0. 0. 0. 0. 0. 0. 0. 0. 0. 0. 0. 0. 0. 0. 0. 0. 0.
      0. 0. 0. 0. 0. 0. 0. 0. 0. 0. 0. 0. 0. 0. 0. 0. 0. 0. 0. 0. 0. 0.
      0. 0. 0. 0. 0. 0. 0. 0. 0. 0. 0. 0. 0. 0. 0. 0. 0. 0. 0. 0. 0. 0.
      0. 0. 0. 0. 0. 0. 0. 0. 0. 0. 0. 0. 0. 0. 0. 0. 0. 0. 0. 0. 0. 0.
      0. 0. 0. 0. 0. 0. 0. 0. 0. 0. 0. 0. 0. 0. 0. 0. 0. 0. 0. 0. 0. 0.
      0. 0. 0. 0. 0. 0. 0. 0. 0. 0. 0. 0. 0. 0. 0. 0. 0. 0. 0. 0. 0. 0.
      0. 0. 0. 0. 0. 0. 0. 0. 0. 0. 0. 0. 0. 0. 0. 0. 0. 0. 0. 0. 0. 0.
      0. 0. 0. 0. 0. 0. 0. 0. 0. 0. 0. 0. 0. 0. 0. 0. 0. 0. 0. 0. 0. 0.
      0. 0. 0. 0. 0. 0. 0. 0. 0. 0. 0. 0. 0. 0. 0. 0. 0. 0. 0. 0. 0. 0.
      0. 0. 0. 0. 0. 0. 0. 0. 0. 0. 0. 0. 0. 0. 0. 0. 0. 0. 0. 0. 0. 0.
      0. 0. 0. 0. 0. 0. 0. 0. 0. 0. 0. 0. 0. 0. 0. 0. 0. 0. 0. 0. 0. 0.
      0. 0. 0. 0. 0. 0. 0. 0. 0. 0. 0. 0. 0. 0. 0. 0. 0. 0. 0. 0. 0. 0.
      0. 0. 0. 0. 0. 0. 0. 0. 0. 0. 0. 0. 0. 0. 0. 0. 0. 0. 0. 0. 0. 0.
      0. 0. 0. 0. 0. 0. 0. 0. 0. 0. 0. 0. 0. 0. 0. 0. 0. 0. 0. 0. 0. 0.
      0. 0. 0. 0. 0. 0. 0. 0. 0. 0. 0. 0. 0. 0. 0. 0. 0. 0. 0. 0. 0. 0.
      0. 0. 0. 0. 0. 0. 0. 0. 0. 0. 0. 0. 0. 0. 0. 0. 0. 0. 0. 0. 0. 0.
      0. 0. 0. 0. 0. 0. 0. 0. 0. 0. 0. 0. 0. 0. 0. 0. 0. 0. 0. 0. 0. 0.
      0. 0. 0. 0. 0. 0. 0. 0. 0. 0. 0. 0. 0. 0. 0. 0. 0. 0. 0. 0. 0. 0.
      0. 0. 0. 0. 0. 0. 0. 0. 0. 0. 0. 0. 0. 0. 0. 0. 0. 0. 0. 0. 0. 0.
      0. 0. 0. 0. 0. 0. 0. 0. 0. 0. 0. 0. 0. 0. 0. 0. 0. 0. 0. 0. 0. 0.
      0. 0. 0. 0. 0. 0. 0. 0. 0. 0. 0. 0. 0. 0. 0. 0. 0. 0. 0. 0. 0. 0.
      0. 0. 0. 0. 0. 0. 0. 0. 0. 0. 0. 0. 0. 0. 0. 0. 0. 0. 0. 0. 0. 0.
      0. 0. 0. 0. 0. 0. 0. 0. 0. 0. 0. 0. 0. 0. 0. 0. 0. 0. 0. 0. 0. 0.
      0. 0. 0. 0. 0. 0. 0. 0. 0. 0. 0. 0. 0. 0. 0. 0. 0. 0. 0. 0. 0. 0.
      0. 0. 0. 0. 0. 0. 0. 0. 0. 0. 0. 0. 0. 0. 0. 0. 0. 0. 0. 0. 0. 0.
      0. 0. 0. 0. 0. 0. 0. 0. 0. 0. 0. 0. 0. 0. 0. 0. 0. 0. 0. 0. 0. 0.
      0. 0. 0. 0. 0. 0. 0. 0. 0. 0. 0. 0. 0. 0. 0. 0. 0. 0. 0. 0. 0. 0.
      0. 0. 0. 0. 0. 0. 0. 0. 0. 0. 0. 0. 0. 0. 0. 0. 0. 0. 0. 0. 0. 0.
      0. 0. 0. 0. 0. 0. 0. 0. 0. 0. 0. 0. 0. 0. 0. 0. 0. 0. 0. 0. 0. 0.
      0. 0. 0. 0. 0. 0. 0. 0. 0. 0. 0. 0. 0. 0. 0. 0. 0. 0. 0. 0. 0. 0.
      0. 0. 0. 0. 0. 0. 0. 0. 0. 0. 0. 0. 0. 0. 0. 0. 0. 0. 0. 0. 0. 0.
      0. 0. 0. 0. 0. 0. 0. 0. 0. 0. 0. 0. 0. 0. 0. 0. 0. 0. 0. 0. 0. 0.
      0. 0. 0. 0. 0. 0. 0. 0. 0. 0. 0. 0. 0. 0. 0. 0. 0. 0. 0. 0. 0. 0.
      0. 0. 0. 0. 0. 0. 0. 0. 0. 0. 0. 0. 0. 0. 0. 0. 0. 0. 0. 0. 0. 0.
      0. 0. 0. 0. 0. 0. 0. 0. 0. 0. 0. 0. 0. 0. 0. 0. 0. 0. 0. 0. 0. 0.
      0. 0. 0. 0. 0. 0. 0. 0. 0. 0. 0. 0. 0. 0.</_>
    <_>
      0. 0. 0. 0. 0. 0. 0. 0. 0. 0. 0. 0. 0. 0. 0. 0. 0. 0. 0. 0. 0. 0.
      0. 0. 0. 0. 0. 0. 0. 0. 0. 0. 0. 0. 0. 0. 0. 0. 0. 0. 0. 0. 0. 0.
      0. 0. 0. 0. 0. 0. 0. 0. 0. 0. 0. 0. 0. 0. 0. 0. 0. 0. 0. 0. 0. 0.
      0. 0. 0. 0. 0. 0. 0. 0. 0. 0. 0. 0. 0. 0. 0. 0. 0. 0. 0. 0. 0. 0.
      0. 0. 0. 0. 0. 0. 0. 0. 0. 0. 0. 0. 0. 0. 0. 0. 0. 0. 0. 0. 0. 0.
      0. 0. 0. 0. 0. 0. 0. 0. 0. 0. 0. 0. 0. 0. 0. 0. 0. 0. 0. 0. 0. 0.
      0. 0. 0. 0. 0. 0. 0. 0. 0. 0. 0. 0. 0. 0. 0. 0. 0. 0. 0. 0. 0. 0.
      0. 0. 0. 0. 0. 0. 0. 0. 0. 0. 0. 0. 0. 0. 0. 0. 0. 0. 0. 0. 0. 0.
      0. 0. 0. 0. 0. 0. 0. 0. 0. 0. 0. 0. 0. 0. 0. 0. 0. 0. 0. 0. 0. 0.
      0. 0. 0. 0. 0. 0. 0. 0. 0. 0. 0. 0. 0. 0. 0. 0. 0. 0. 0. 0. 0. 0.
      0. 0. 0. 0. 0. 0. 0. 0. 0. 0. 0. 0. 0. 0. 0. 0. 0. 0. 0. 0. 0. 0.
      0. 0. 0. 0. 0. 0. 0. 0. 0. 0. 0. 0. 0. 0. 0. 0. 0. 0. 0. 0. 0. 0.
      0. 0. 0. 0. 0. 0. 0. 0. 0. 0. 0. 0. 0. 0. 0. 0. 0. 0. 0. 0. 0. 0.
      0. 0. 0. 0. 0. 0. 0. 0. 0. 0. 0. 0. 0. 0. 0. 0. 0. 0. 0. 0. 0. 0.
      0. 0. 0. 0. 0. 0. 0. 0. 0. 0. 0. 0. 0. 0. 0. 0. 0. 0. 0. 0. 0. 0.
      0. 0. 0. 0. 0. 0. 0. 0. 0. 0. 0. 0. 0. 0. 0. 0. 0. 0. 0. 0. 0. 0.
      0. 0. 0. 0. 0. 0. 0. 0. 0. 0. 0. 0. 0. 0. 0. 0. 0. 0. 0. 0. 0. 0.
      0. 0. 0. 0. 0. 0. 0. 0. 0. 0. 0. 0. 0. 0. 0. 0. 0. 0. 0. 0. 0. 0.
      0. 0. 0. 0. 0. 0. 0. 0. 0. 0. 0. 0. 0. 0. 0. 0. 0. 0. 0. 0. 0. 0.
      0. 0. 0. 0. 0. 0. 0. 0. 0. 0. 0. 0. 0. 0. 0. 0. 0. 0. 0. 0. 0. 0.
      0. 0. 0. 0. 0. 0. 0. 0. 0. 0. 0. 0. 0. 0. 0. 0. 0. 0. 0. 0. 0. 0.
      0. 0. 0. 0. 0. 0. 0. 0. 0. 0. 0. 0. 0. 0. 0. 0. 0. 0. 0. 0. 0. 0.
      0. 0. 0. 0. 0. 0. 0. 0. 0. 0. 0. 0. 0. 0. 0. 0. 0. 0. 0. 0. 0. 0.
      0. 0. 0. 0. 0. 0. 0. 0. 0. 0. 0. 0. 0. 0. 0. 0. 0. 0. 0. 0. 0. 0.
      0. 0. 0. 0. 0. 0. 0. 0. 0. 0. 0. 0. 0. 0. 0. 0. 0. 0. 0. 0. 0. 0.
      0. 0. 0. 0. 0. 0. 0. 0. 0. 0. 0. 0. 0. 0. 0. 0. 0. 0. 0. 0. 0. 0.
      0. 0. 0. 0. 0. 0. 0. 0. 0. 0. 0. 0. 0. 0. 0. 0. 0. 0. 0. 0. 0. 0.
      0. 0. 0. 0. 0. 0. 0. 0. 0. 0. 0. 0. 0. 0. 0. 0. 0. 0. 0. 0. 0. 0.
      0. 0. 0. 0. 0. 0. 0. 0. 0. 0. 0. 0. 0. 0. 0. 0. 0. 0. 0. 0. 0. 0.
      0. 0. 0. 0. 0. 0. 0. 0. 0. 0. 0. 0. 0. 0. 0. 0. 0. 0. 0. 0. 0. 0.
      0. 0. 0. 0. 0. 0. 0. 0. 0. 0. 0. 0. 0. 0. 0. 0. 0. 0. 0. 0. 0. 0.
      0. 0. 0. 0. 0. 0. 0. 0. 0. 0. 0. 0. 0. 0. 0. 0. 0. 0. 0. 0. 0. 0.
      0. 0. 0. 0. 0. 0. 0. 0. 0. 0. 0. 0. 0. 0. 0. 0. 0. 0. 0. 0. 0. 0.
      0. 0. 0. -5.33946888e-07 -5.33946888e-07 -5.33946888e-07
      -5.33946888e-07 -5.33946888e-07 -5.33946888e-07 0. -5.33946888e-07
      0. 0. 0. 5.08468520e-06 5.08468520e-06 5.08468520e-06 0. 0. 0. 0.
      0. 0. 0. 0. 0. 0. 0. 0. 0. 0. 0. 0. 0. 0. 0. 0. 0. 0. 0. 0. 0. 0.
      0. 0. 0. 0. 0. 0. 0. 0. 0. 0. 0. 0. 0. 0. 0. 0. 0. 0. 0. 0. 0. 0.
      0. 0. 0. 0. 0. 0. -5.33946888e-07 -5.33946888e-07 -9.44782369e-06
      -1.05361523e-05 -9.44782369e-06 -9.44782369e-06 -9.44782369e-06
      -9.44782369e-06 -1.05361523e-05 -1.05361523e-05 -9.44782369e-06
      -2.43694853e-06 2.16796138e-06 4.52174390e-06 7.34833066e-06
      1.09469638e-05 7.01087492e-06 7.01087492e-06 1.92619018e-06 0. 0.
      0. 0. 0. 0. 0. 0. 0. 0. 0. 0. 0. 0. 0. 0. 0. 0. 0. 0. 0. 0. 0. 0.
      0. 0. 0. 0. 0. 0. 0. 0. 0. 0. 0. 0. 0. 0. 0. 0. 0. 0. 0. 0. 0. 0.
      0. 0. 0. 0. -5.33946888e-07 -1.04012779e-05 -1.05361523e-05
      -1.05361523e-05 -1.05361523e-05 -1.05361523e-05 -1.05361523e-05
      -1.05361523e-05 -1.05361523e-05 -1.05361523e-05 -1.05361523e-05
      -1.85283363e-06 4.10812078e-07 8.38765300e-06 8.38765300e-06
      1.01448022e-05 1.24985854e-05 1.06095085e-05 7.01087492e-06
      1.92619018e-06 0. 0. 0. 0. 0. 0. 0. 0. 0. 0. 0. 0. 0. 0. 0. 0. 0.
      0. 0. 0. 0. 0. 0. 0. 0. 0. 0. 0. 0. 0. 0. 0. 0. 0. 0. 0. 0. 0. 0.
      0. 0. 0. 0. 0. 0. 0. 0. -5.33946888e-07 -5.33946888e-07
      -2.88772958e-06 -4.11093197e-06 -1.05361523e-05 -1.05361523e-05
      -2.43569812e-05 -3.58943289e-05 -3.58943289e-05 -2.43569812e-05
      -1.84417058e-05 -1.84417058e-05 -1.84417058e-05 -8.13607130e-06
      -2.27379246e-06 8.38765300e-06 8.38765300e-06 8.38765300e-06
      8.38765300e-06 1.00099287e-05 4.52174390e-06 1.06095085e-05 0. 0.
      0. 0. 0. 0. 0. 0. 0. 0. 0. 0. 0. 0. 0. 0. 0. 0. 0. 0. 0. 0. 0. 0.
      0. 0. 0. 0. 0. 0. 0. 0. 0. 0. 0. 0. 0. 0. 0. 0. 0. 0. 0. 0. 0. 0.
      0. -5.33946888e-07 -5.33946888e-07 -3.02260355e-06 -1.05361523e-05
      -2.16723765e-05 -2.43569812e-05 -2.43569812e-05 -3.58943289e-05
      -3.58943289e-05 -2.99790554e-05 -2.99790554e-05 -2.99790554e-05
      -2.99790554e-05 -2.29681809e-05 -2.52848222e-05 -2.49473669e-05
      -1.69705254e-05 5.70304883e-06 8.38765300e-06 8.38765300e-06
      8.38765300e-06 2.03308741e-06 4.18428817e-06 3.59863338e-06 0. 0.
      0. 0. 0. 0. 0. 0. 0. 0. 0. 0. 0. 0. 0. 0. 0. 0. 0. 0. 0. 0. 0. 0.
      0. 0. 0. 0. 0. 0. 0. 0. 0. 0. 0. 0. 0. 0. 0. 0. 0. 0. 0. 0. 0.
      -5.33946888e-07 -5.33946888e-07 -5.33946888e-07 -1.05361523e-05
      -1.05361523e-05 -2.43569812e-05 -3.58943289e-05 -3.58943289e-05
      -3.58943289e-05 -3.58943289e-05 -2.99790554e-05 -2.93102348e-05
      -1.83898574e-05 -9.02520060e-06 -9.22169147e-06 -1.88972172e-05
      -1.69705254e-05 -1.05453055e-05 -1.05453055e-05 -1.69705254e-05
      5.70304883e-06 8.38765300e-06 7.33564107e-08 1.69563168e-06
      -9.00396685e-07 0. 0. 0. 0. 0. 0. 0. 0. 0. 0. 0. 0. 0. 0. 0. 0. 0.
      0. 0. 0. 0. 0. 0. 0. 0. 0. 0. 0. 0. 0. 0. 0. 0. 0. 0. 0. 0. 0. 0.
      0. 0. 0. 0. 0. -5.33946888e-07 -5.33946888e-07 -5.33946888e-07
      -1.79317612e-05 -2.43569812e-05 -2.43569812e-05 -3.58943289e-05
      -3.58943289e-05 -3.58943289e-05 -1.83898574e-05 -1.82549848e-05
      -8.38765300e-06 -8.38765300e-06 -8.38765300e-06 2.22185531e-06
      2.55931104e-06 -5.19099046e-07 -1.09203766e-05 -4.63003107e-06
      -1.05453055e-05 -1.69705254e-05 -1.69705254e-05 5.70304883e-06
      4.10812078e-07 6.07303321e-07 -8.07601464e-06 -6.42521991e-06 0.
      0. 0. 0. 0. 0. 0. 0. 0. 0. 0. 0. 0. 0. 0. 0. 0. 0. 0. 0. 0. 0. 0.
      0. 0. 0. 0. 0. 0. 0. 0. 0. 0. 0. 0. 0. 0. 0. 0. 0. 0. 0. 0.
      -5.33946888e-07 -5.33946888e-07 -4.11093197e-06 -2.43569812e-05
      -3.58943289e-05 -3.58943289e-05 -3.58943289e-05 -2.43051327e-05
      -1.83898574e-05 -8.38765300e-06 -8.38765300e-06 -8.38765300e-06
      -8.38765300e-06 -4.78901984e-06 2.55931104e-06 1.05361523e-05
      -5.19099046e-07 -5.19099046e-07 -8.05664877e-06 -8.19152228e-06
      -1.05453055e-05 -1.69705254e-05 -1.69705254e-05 5.70304883e-06
      7.33564107e-08 -1.00022053e-05 -9.86733085e-06 0. 0. 0. 0. 0. 0.
      0. 0. 0. 0. 0. 0. 0. 0. 0. 0. 0. 0. 0. 0. 0. 0. 0. 0. 0. 0. 0. 0.
      0. 0. 0. 0. 0. 0. 0. 0. 0. 0. 0. 0. 0. 0. -5.33946888e-07
      -5.33946888e-07 -1.62227525e-06 -1.52471557e-05 -3.58943289e-05
      -2.48390788e-05 -1.89238053e-05 -1.83898574e-05 -1.83898574e-05
      -8.38765300e-06 -8.38765300e-06 -5.70304883e-06 -5.36559310e-06
      1.63801396e-05 2.43569812e-05 2.43569812e-05 2.47581065e-05
      -5.19099046e-07 -5.19099046e-07 -6.43437306e-06 -6.96832012e-06
      -1.04104311e-05 -1.05453055e-05 -1.69705254e-05 -1.73079807e-05
      7.33564107e-08 -6.40357166e-06 -1.00022053e-05 -6.42521991e-06 0.
      0. 0. 0. 0. 0. 0. 0. 0. 0. 0. 0. 0. 0. 0. 0. 0. 0. 0. 0. 0. 0. 0.
      0. 0. 0. 0. 0. 0. 0. 0. 0. 0. 0. 0. 0. 0. 0. 0. 0. 0.
      -5.33946888e-07 -5.33946888e-07 -4.11093197e-06 -1.05361523e-05
      -2.48390788e-05 -1.89238053e-05 -1.89238053e-05 -1.83898574e-05
      -3.67664916e-06 5.43317537e-06 5.91527396e-06 6.25272969e-06
      1.49360485e-05 1.68622373e-05 3.58943289e-05 3.58943289e-05
      3.58943289e-05 2.48390788e-05 -5.19099046e-07 -6.43437306e-06
      -6.96832012e-06 -8.05664877e-06 -1.46167422e-05 -1.69705254e-05
      -1.73079807e-05 -1.41485980e-05 -1.05361523e-05 -1.00022053e-05
      -8.77900220e-06 0. 0. 0. 0. 0. 0. 0. 0. 0. 0. 0. 0. 0. 0. 0. 0. 0.
      0. 0. 0. 0. 0. 0. 0. 0. 0. 0. 0. 0. 0. 0. 0. 0. 0. 0. 0. 0. 0. 0.
      0. 0. -5.33946888e-07 -1.62227525e-06 -4.11093197e-06
      -1.05361523e-05 -3.58943289e-05 -1.88428312e-05 -2.72944508e-05
      -1.32704981e-05 -5.09945949e-07 1.09999592e-05 1.32636051e-05
      1.68622373e-05 2.48390788e-05 2.48390788e-05 3.58943289e-05
      3.58943289e-05 3.58943289e-05 2.48390788e-05 2.48390788e-05
      -6.43437306e-06 -6.96832012e-06 -6.96832012e-06 -8.19152228e-06
      -1.69705254e-05 -1.69705254e-05 -1.41485980e-05 -8.60996170e-06
      -1.05361523e-05 -1.00022053e-05 0. 0. 0. 0. 0. 0. 0. 0. 0. 0. 0.
      0. 0. 0. 0. 0. 0. 0. 0. 0. 0. 0. 0. 0. 0. 0. 0. 0. 0. 0. 0. 0. 0.
      0. 0. 0. 0. 0. 0. 0. 0. -5.33946888e-07 -1.62227525e-06
      -1.05361523e-05 -1.05361523e-05 -4.62087792e-06 -4.62087792e-06
      -4.08693086e-06 1.41624412e-06 1.29261489e-05 7.34833066e-06
      1.09469638e-05 1.09469638e-05 2.48390788e-05 2.48390788e-05
      3.58943289e-05 3.58943289e-05 3.58943289e-05 2.48390788e-05
      2.48390788e-05 1.37028555e-05 -6.96832012e-06 -6.96832012e-06
      -7.10319409e-06 -1.69705254e-05 -5.83430119e-06 -1.41485980e-05
      -1.12945663e-05 -1.05361523e-05 -1.00022053e-05 0. 0. 0. 0. 0. 0.
      0. 0. 0. 0. 0. 0. 0. 0. 0. 0. 0. 0. 0. 0. 0. 0. 0. 0. 0. 0. 0. 0.
      0. 0. 0. 0. 0. 0. 0. 0. 0. 0. 0. 0. 0. 0. -5.33946888e-07
      -4.11093197e-06 -1.05361523e-05 -4.62087792e-06 -4.08693086e-06
      9.97754000e-07 1.00995621e-05 1.89238053e-05 1.89238053e-05
      1.89238053e-05 1.89238053e-05 1.89238053e-05 1.89238053e-05
      3.58943289e-05 3.58943289e-05 3.58943289e-05 1.65247820e-05
      2.45016236e-05 7.78758113e-06 -4.28371550e-06 -6.96832012e-06
      -6.96832012e-06 -1.69705254e-05 -2.52848222e-05 -1.41485980e-05
      -2.20735019e-05 -1.00022053e-05 -8.91387663e-06 0. 0. 0. 0. 0. 0.
      0. 0. 0. 0. 0. 0. 0. 0. 0. 0. 0. 0. 0. 0. 0. 0. 0. 0. 0. 0. 0. 0.
      0. 0. 0. 0. 0. 0. 0. 0. 0. 0. 0. 0. 0. 0. 0. -1.08832830e-06
      -3.44211094e-06 -3.44211094e-06 -1.51592076e-06 9.52117989e-06
      1.85863501e-05 1.89238053e-05 1.89238053e-05 1.89238053e-05
      1.89238053e-05 1.89238053e-05 1.89238053e-05 2.48390788e-05
      2.75800339e-05 2.75800339e-05 1.65247820e-05 1.68622373e-05
      7.78758113e-06 -4.28371550e-06 -6.96832012e-06 -1.35284145e-05
      -1.69705254e-05 -2.52848222e-05 -2.52848222e-05 -2.20735019e-05
      -1.00022053e-05 -1.00022053e-05 0. 0. 0. 0. 0. 0. 0. 0. 0. 0. 0.
      0. 0. 0. 0. 0. 0. 0. 0. 0. 0. 0. 0. 0. 0. 0. 0. 0. 0. 0. 0. 0. 0.
      0. 0. 0. 0. 0. 0. 0. 0. 0. 0. 0. 0. 0. 5.08468520e-06
      1.06095085e-05 1.09469638e-05 1.89238053e-05 1.89238053e-05
      1.89238053e-05 1.89238053e-05 1.89238053e-05 1.89238053e-05
      2.75800339e-05 2.75800339e-05 2.75800339e-05 2.75800339e-05
      1.68622373e-05 7.78758113e-06 -4.28371550e-06 -6.96832012e-06
      -1.58821967e-05 -1.69705254e-05 -2.52848222e-05 -1.41485980e-05
      -7.69593316e-06 -1.00022053e-05 -1.00022053e-05 0. 0. 0. 0. 0. 0.
      0. 0. 0. 0. 0. 0. 0. 0. 0. 0. 0. 0. 0. 0. 0. 0. 0. 0. 0. 0. 0. 0.
      0. 0. 0. 0. 0. 0. 0. 0. 0. 0. 0. 0. 0. 0. 0. 0. 0. 0. 0.
      1.06095085e-05 1.09469638e-05 1.89238053e-05 1.89238053e-05
      1.89238053e-05 1.89238053e-05 1.85863501e-05 1.06095085e-05
      1.65247820e-05 2.24953492e-05 2.24953492e-05 1.65247820e-05
      1.68622373e-05 7.78758113e-06 -3.74976867e-06 -6.96832012e-06
      -1.69705254e-05 -1.69705254e-05 -2.52848222e-05 -1.41485980e-05
      -7.69593316e-06 -1.00022053e-05 -1.00022053e-05 0. 0. 0. 0. 0. 0.
      0. 0. 0. 0. 0. 0. 0. 0. 0. 0. 0. 0. 0. 0. 0. 0. 0. 0. 0. 0. 0. 0.
      0. 0. 0. 0. 0. 0. 0. 0. 0. 0. 0. 0. 0. 0. 0. 0. 0. 0. 0.
      1.06095085e-05 1.85863501e-05 1.89238053e-05 1.85863501e-05
      1.85863501e-05 1.85863501e-05 1.06095085e-05 1.14400973e-05
      7.84146414e-06 1.69705254e-05 2.05691576e-05 1.65247820e-05
      1.68622373e-05 1.31689085e-05 -4.28371550e-06 -6.96832012e-06
      -1.69705254e-05 -1.69705254e-05 -1.69705254e-05 -1.41485980e-05
      -1.32207560e-05 -1.00022053e-05 -9.86733085e-06 0. 0. 0. 0. 0. 0.
      0. 0. 0. 0. 0. 0. 0. 0. 0. 0. 0. 0. 0. 0. 0. 0. 0. 0. 0. 0. 0. 0.
      0. 0. 0. 0. 0. 0. 0. 0. 0. 0. 0. 0. 0. 0. 0. 0. 0. 0.
      5.08468520e-06 1.06095085e-05 1.85863501e-05 1.85863501e-05
      1.85863501e-05 1.06095085e-05 1.06095085e-05 5.52482334e-06
      3.59863338e-06 1.69705254e-05 1.69705254e-05 2.05691576e-05
      1.45985923e-05 4.85461169e-06 1.31689085e-05 -6.96832012e-06
      -7.10319409e-06 -1.69705254e-05 -1.69705254e-05 -1.69705254e-05
      -1.41485980e-05 -1.00022053e-05 -9.86733085e-06 0. 0. 0. 0. 0. 0.
      0. 0. 0. 0. 0. 0. 0. 0. 0. 0. 0. 0. 0. 0. 0. 0. 0. 0. 0. 0. 0. 0.
      0. 0. 0. 0. 0. 0. 0. 0. 0. 0. 0. 0. 0. 0. 0. 0. 0. 0. 0.
      3.59863338e-06 1.06095085e-05 1.06095085e-05 1.06095085e-05
      1.06095085e-05 1.06095085e-05 8.68331790e-06 0. 0. 1.69705254e-05
      1.69705254e-05 1.69705254e-05 2.51198962e-05 5.19206696e-06
      -1.33935400e-05 -1.69705254e-05 -1.69705254e-05 -1.69705254e-05
      -1.69705254e-05 -1.69705254e-05 -1.41485980e-05 -9.86733085e-06
      -7.51354855e-06 0. 0. 0. 0. 0. 0. 0. 0. 0. 0. 0. 0. 0. 0. 0. 0. 0.
      0. 0. 0. 0. 0. 0. 0. 0. 0. 0. 0. 0. 0. 0. 0. 0. 0. 0. 0. 0. 0. 0.
      0. 0. 0. 0. 0. 0. 0. 0. 0. 5.52482334e-06 1.06095085e-05
      8.68331790e-06 0. 3.59863338e-06 0. 0. 0. 1.69705254e-05
      1.64365774e-05 1.64365774e-05 7.22654431e-06 -1.92346743e-05
      -1.68356510e-05 -1.69705254e-05 -1.69705254e-05 -1.69705254e-05
      -1.69705254e-05 -1.69705254e-05 -2.07730113e-06 -2.85645592e-06 0.
      0. 0. 0. 0. 0. 0. 0. 0. 0. 0. 0. 0. 0. 0. 0. 0. 0. 0. 0. 0. 0. 0.
      0. 0. 0. 0. 0. 0. 0. 0. 0. 0. 0. 0. 0. 0. 0. 0. 0. 0. 0. 0. 0. 0.
      0. 0. 0. 0. 0. 5.08468520e-06 0. 0. 0. 0. -5.33946888e-07
      -2.88772958e-06 2.89267064e-06 7.52270125e-06 7.52270125e-06
      -1.69976156e-05 -1.93695469e-05 -1.69705254e-05 -1.69705254e-05
      -1.69705254e-05 -1.69705254e-05 -1.69705254e-05 -5.30035413e-06
      1.83050577e-06 -1.76812750e-06 0. 0. 0. 0. 0. 0. 0. 0. 0. 0. 0. 0.
      0. 0. 0. 0. 0. 0. 0. 0. 0. 0. 0. 0. 0. 0. 0. 0. 0. 0. 0. 0. 0. 0.
      0. 0. 0. 0. 0. 0. 0. 0. 0. 0. 0. 0. 0. 0. 0. 0. 0. 0. 0. 0. 0.
      -5.70720795e-06 -6.79553659e-06 -1.57571012e-05 -1.62392007e-05
      -1.89238053e-05 -1.33989815e-05 -1.10552510e-05 -1.69705254e-05
      -1.69705254e-05 -1.69705254e-05 -1.69705254e-05 5.70304883e-06
      6.37186940e-06 1.06095085e-05 7.01087492e-06 0. 0. 0. 0. 0. 0. 0.
      0. 0. 0. 0. 0. 0. 0. 0. 0. 0. 0. 0. 0. 0. 0. 0. 0. 0. 0. 0. 0. 0.
      0. 0. 0. 0. 0. 0. 0. 0. 0. 0. 0. 0. 0. 0. 0. 0. 0. 0. 0. 0. 0.
      -1.11362242e-05 -1.38208288e-05 -1.38208288e-05 -1.38208288e-05
      -2.58921245e-05 -2.94691108e-05 -3.58943289e-05 -2.99790554e-05
      -1.89238053e-05 -1.89238053e-05 -1.93695469e-05 -1.90320916e-05
      -1.10552510e-05 -1.69705254e-05 -1.69705254e-05 8.38765300e-06
      8.38765300e-06 1.01448022e-05 4.18428817e-06 5.85655016e-07 0. 0.
      0. 0. 0. 0. 0. 0. 0. 0. 0. 0. 0. 0. 0. 0. 0. 0. 0. 0. 0. 0. 0. 0.
      0. 0. 0. 0. 0. 0. 0. 0. 0. 0. 0. 0. 0. 0. 0. 0. 0. 0. 0. 0. 0. 0.
      0. 0. 0. -1.11362242e-05 -2.53581784e-05 -2.53581784e-05
      -2.53581784e-05 -2.53581784e-05 -2.58921245e-05 -2.94691108e-05
      -3.58943289e-05 -2.99790554e-05 -1.89238053e-05 -1.89238053e-05
      -8.31429679e-06 -1.90320916e-05 8.09731091e-08 -5.83430119e-06
      5.70304883e-06 8.38765300e-06 8.38765300e-06 8.58414478e-06
      2.25809822e-06 2.25809822e-06 0. 0. 0. 0. 0. 0. 0. 0. 0. 0. 0. 0.
      0. 0. 0. 0. 0. 0. 0. 0. 0. 0. 0. 0. 0. 0. 0. 0. 0. 0. 0. 0. 0. 0.
      0. 0. 0. 0. 0. 0. 0. 0. 0. 0. 0. 0. 0. 0. 0. -1.11362242e-05
      -2.53581784e-05 -2.53581784e-05 -2.53581784e-05 -2.53581784e-05
      -2.58921245e-05 -2.93342364e-05 -2.94691108e-05 -1.89238053e-05
      -1.89238053e-05 -1.89238053e-05 -1.19129299e-05 -1.10552510e-05
      -1.10552510e-05 -5.83430119e-06 5.70304883e-06 5.70304883e-06
      8.38765300e-06 8.05019772e-06 7.33564107e-08 -9.56843706e-08
      -6.42521991e-06 0. 0. 0. 0. 0. 0. 0. 0. 0. 0. 0. 0. 0. 0. 0. 0. 0.
      0. 0. 0. 0. 0. 0. 0. 0. 0. 0. 0. 0. 0. 0. 0. 0. 0. 0. 0. 0. 0. 0.
      0. 0. 0. 0. 0. 0. 0. 0. 0. -1.11362242e-05 -2.26735738e-05
      -2.53581784e-05 -2.53581784e-05 -2.53581784e-05 -2.64465070e-05
      -2.64465070e-05 -2.64465070e-05 -9.47598164e-06 -9.47598164e-06
      -9.47598164e-06 -4.81888901e-06 -1.88972172e-05 -1.10552510e-05
      -1.69705254e-05 -1.69705254e-05 -5.43317537e-06 5.70304883e-06
      7.33564107e-08 7.33564107e-08 -5.45146713e-06 -9.86733085e-06
      -6.42521991e-06 0. 0. 0. 0. 0. 0. 0. 0. 0. 0. 0. 0. 0. 0. 0. 0. 0.
      0. 0. 0. 0. 0. 0. 0. 0. 0. 0. 0. 0. 0. 0. 0. 0. 0. 0. 0. 0. 0. 0.
      0. 0. 0. 0. 0. 0. 0. 0. 0. -2.26735738e-05 -2.26735738e-05
      -2.26735738e-05 -2.53581784e-05 -2.26735738e-05 -2.53581784e-05
      -2.26735738e-05 -5.70304883e-06 -8.38765300e-06 -8.38765300e-06
      -1.39180811e-05 -8.49594016e-06 -5.19099046e-07 -7.10319409e-06
      -1.05453055e-05 -1.69705254e-05 -1.69705254e-05 -2.61124819e-06
      -2.61124819e-06 -6.93751872e-06 -1.00022053e-05 -1.00022053e-05 0.
      0. 0. 0. 0. 0. 0. 0. 0. 0. 0. 0. 0. 0. 0. 0. 0. 0. 0. 0. 0. 0. 0.
      0. 0. 0. 0. 0. 0. 0. 0. 0. 0. 0. 0. 0. 0. 0. 0. 0. 0. 0. 0. 0. 0.
      0. 0. 0. 0. 0. 0. 0. 0. 0. 0. 5.83430119e-06 5.83430119e-06
      5.83430119e-06 2.30282831e-06 -8.49594016e-06 -5.19099046e-07
      -6.43437306e-06 -6.96832012e-06 -8.19152228e-06 -1.69705254e-05
      -1.69705254e-05 -2.61124819e-06 -4.53743814e-06 -1.05361523e-05
      -1.00022053e-05 -8.91387663e-06 0. 0. 0. 0. 0. 0. 0. 0. 0. 0. 0.
      0. 0. 0. 0. 0. 0. 0. 0. 0. 0. 0. 0. 0. 0. 0. 0. 0. 0. 0. 0. 0. 0.
      0. 0. 0. 0. 0. 0. 0. 0. 0. 0. 0. 0. 0. 0. 0. 0. 0. 0. 0. 0. 0.
      1.69705254e-05 1.69705254e-05 1.69705254e-05 1.65247820e-05
      -5.81133554e-06 2.16550552e-06 -6.43437306e-06 -6.43437306e-06
      -6.96832012e-06 -8.19152228e-06 -1.69705254e-05 -2.52848222e-05
      -1.60747877e-05 -1.05361523e-05 -1.05361523e-05 -8.91387663e-06 0.
      0. 0. 0. 0. 0. 0. 0. 0. 0. 0. 0. 0. 0. 0. 0. 0. 0. 0. 0. 0. 0. 0.
      0. 0. 0. 0. 0. 0. 0. 0. 0. 0. 0. 0. 0. 0. 0. 0. 0. 0. 0. 0. 0. 0.
      0. 0. 0. 0. 0. 0. 0. 0. 0. 5.91527396e-06 1.69705254e-05
      1.69705254e-05 9.51390757e-06 1.68622373e-05 2.16550552e-06
      -3.74976867e-06 -6.43437306e-06 -6.43437306e-06 -8.19152228e-06
      -2.49473669e-05 -2.52848222e-05 -2.72110119e-05 -1.32207560e-05
      -1.05361523e-05 -1.00022053e-05 0. 0. 0. 0. 0. 0. 0. 0. 0. 0. 0.
      0. 0. 0. 0. 0. 0. 0. 0. 0. 0. 0. 0. 0. 0. 0. 0. 0. 0. 0. 0. 0. 0.
      0. 0. 0. 0. 0. 0. 0. 0. 0. 0. 0. 0. 0. 0. 0. 0. 0. 0. 0. 0. 0.
      5.91527396e-06 1.69705254e-05 1.69705254e-05 5.91527396e-06
      1.68622373e-05 2.48390788e-05 -3.74976867e-06 -6.43437306e-06
      -6.43437306e-06 -8.05664877e-06 -2.29310390e-05 -2.52848222e-05
      -2.72110119e-05 -2.47581065e-05 -1.32207560e-05 -1.05361523e-05
      -8.91387663e-06 0. 0. 0. 0. 0. 0. 0. 0. 0. 0. 0. 0. 0. 0. 0. 0. 0.
      0. 0. 0. 0. 0. 0. 0. 0. 0. 0. 0. 0. 0. 0. 0. 0. 0. 0. 0. 0. 0. 0.
      0. 0. 0. 0. 0. 0. 0. 0. 0. 0. 0. 0. 0. 0. 1.69705254e-05
      1.69705254e-05 1.69705254e-05 5.91527396e-06 1.68622373e-05
      2.48390788e-05 7.38645531e-06 -6.43437306e-06 -6.43437306e-06
      -6.96832012e-06 -2.27961646e-05 -2.52848222e-05 -2.72110119e-05
      -2.47581065e-05 -1.32207560e-05 -1.05361523e-05 -1.00022053e-05 0.
      0. 0. 0. 0. 0. 0. 0. 0. 0. 0. 0. 0. 0. 0. 0. 0. 0. 0. 0. 0. 0. 0.
      0. 0. 0. 0. 0. 0. 0. 0. 0. 0. 0. 0. 0. 0. 0. 0. 0. 0. 0. 0. 0. 0.
      0. 0. 0. 0. 0. 0. 0. 0. 1.10552510e-05 1.69705254e-05
      1.69705254e-05 1.14400973e-05 1.65247820e-05 2.48390788e-05
      1.89238053e-05 -3.74976867e-06 -6.43437306e-06 -6.96832012e-06
      -2.29310390e-05 -2.52848222e-05 -2.72110119e-05 -2.47581065e-05
      -1.32207560e-05 -1.05361523e-05 -1.00022053e-05 0. 0. 0. 0. 0. 0.
      0. 0. 0. 0. 0. 0. 0. 0. 0. 0. 0. 0. 0. 0. 0. 0. 0. 0. 0. 0. 0. 0.
      0. 0. 0. 0. 0. 0. 0. 0. 0. 0. 0. 0. 0. 0. 0. 0. 0. 0. 0. 0. 0. 0.
      0. 0. 0. 1.10552510e-05 1.69705254e-05 1.69705254e-05
      1.14400973e-05 1.65247820e-05 1.89238053e-05 1.89238053e-05
      1.89238053e-05 -6.43437306e-06 -6.96832012e-06 -7.10319409e-06
      -2.29310390e-05 -3.08096460e-05 -3.58943289e-05 -1.32207560e-05
      -1.05361523e-05 -1.00022053e-05 0. 0. 0. 0. 0. 0. 0. 0. 0. 0. 0.
      0. 0. 0. 0. 0. 0. 0. 0. 0. 0. 0. 0. 0. 0. 0. 0. 0. 0. 0. 0. 0. 0.
      0. 0. 0. 0. 0. 0. 0. 0. -5.33946888e-07 -5.33946888e-07 0. 0. 0.
      0. 0. 0. 0. 0. 0. 0. 1.10552510e-05 1.69705254e-05 1.69705254e-05
      2.24953492e-05 1.65247820e-05 2.48390788e-05 1.89238053e-05
      1.89238053e-05 -6.43437306e-06 -6.96832012e-06 -7.10319409e-06
      -2.52848222e-05 -3.22956985e-05 -3.58943289e-05 -2.47581065e-05
      -1.05361523e-05 -1.00022053e-05 0. 0. 0. 0. 0. 0. 0. 0. 0. 0. 0.
      0. 0. 0. 0. 0. 0. 0. 0. 0. 0. 0. 0. 0. 0. 0. 0. 0. 0. 0. 0. 0. 0.
      0. 0. 0. 0. 0. 0. 0. -5.33946888e-07 -6.95916697e-06
      -9.31294926e-06 -9.44782369e-06 -8.91387663e-06 -6.42521991e-06 0.
      0. 0. 0. 0. 0. 0. 0. 1.69705254e-05 1.69705254e-05 2.24953492e-05
      1.65247820e-05 2.48390788e-05 1.89238053e-05 1.89238053e-05
      -6.43437306e-06 -6.96832012e-06 -1.33935400e-05 -2.52848222e-05
      -3.22956985e-05 -3.58943289e-05 -2.47581065e-05 -1.05361523e-05
      -1.05361523e-05 0. 0. 0. 0. 0. 0. 0. 0. 0. 0. 0. 0. 0. 0. 0. 0. 0.
      0. 0. 0. 0. 0. 0. 0. 0. 0. 0. 0. 0. 0. 0. 0. 0. 0. 0. 0. 0. 0. 0.
      -6.68821031e-07 -4.11093197e-06 -1.05361523e-05 -1.05361523e-05
      -1.05361523e-05 -1.05361523e-05 -1.00022053e-05 0. 0. 0. 0. 0. 0.
      0. 0. 1.69705254e-05 1.69705254e-05 2.24953492e-05 1.65247820e-05
      2.48390788e-05 1.89238053e-05 7.78758113e-06 -6.43437306e-06
      -6.96832012e-06 -1.71731062e-05 -2.52848222e-05 -2.72110119e-05
      -1.32207560e-05 -1.32207560e-05 -1.05361523e-05 -1.05361523e-05 0.
      0. 0. 0. 0. 0. 0. 0. 0. 0. 0. 0. 0. 0. 0. 0. 0. 0. 0. 0. 0. 0. 0.
      0. 0. 0. 0. 0. 0. 0. 0. 0. 0. 0. 0. 0. 0. 0. 0. -6.68821031e-07
      -1.05361523e-05 -1.05361523e-05 -1.05361523e-05 -1.05361523e-05
      -1.05361523e-05 -1.05361523e-05 -6.56009433e-06 0. 0. 0. 0. 0. 0.
      0. 1.69705254e-05 1.69705254e-05 2.75800339e-05 1.65247820e-05
      1.89238053e-05 7.78758113e-06 -3.74976867e-06 -6.43437306e-06
      -6.96832012e-06 -1.73079807e-05 -2.52848222e-05 -2.72110119e-05
      -1.32207560e-05 -1.32207560e-05 -1.05361523e-05 -7.51354855e-06 0.
      0. 0. 0. 0. 0. 0. 0. 0. 0. 0. 0. 0. 0. 0. 0. 0. 0. 0. 0. 0. 0. 0.
      0. 0. 0. 0. 0. 0. 0. 0. 0. 0. 0. 0. 0. 0. 0. 0. -5.33946888e-07
      -4.11093197e-06 -1.05361523e-05 -1.05361523e-05 -1.32207560e-05
      -1.05361523e-05 -1.05361523e-05 -8.91387663e-06 -6.42521991e-06 0.
      0. 0. 0. 0. 1.10552510e-05 1.69705254e-05 1.69705254e-05
      1.65247820e-05 1.65247820e-05 2.48390788e-05 -6.43437306e-06
      -6.43437306e-06 -6.96832012e-06 -6.96832012e-06 -1.69705254e-05
      -2.52848222e-05 -2.72110119e-05 -1.32207560e-05 -1.05361523e-05
      -1.00022053e-05 0. 0. 0. 0. 0. 0. 0. 0. 0. 0. 0. 0. 0. 0. 0. 0. 0.
      0. 0. 0. 0. 0. 0. 0. 0. 0. 0. 0. 0. 0. 0. 0. 0. 0. 0. 0. 0. 0. 0.
      0. 0. -3.97605800e-06 -1.05361523e-05 -2.43569812e-05
      -2.43569812e-05 -2.43569812e-05 -2.43569812e-05 -1.32207560e-05
      -6.56009433e-06 0. 0. 0. 0. 0. 0. 1.69705254e-05 1.69705254e-05
      1.14400973e-05 4.98743293e-06 2.16550552e-06 -5.19099046e-07
      -6.43437306e-06 -6.96832012e-06 -8.19152228e-06 -1.73079807e-05
      -2.52848222e-05 -2.72110119e-05 -1.32207560e-05 -1.05361523e-05
      -1.00022053e-05 -1.34874099e-07 0. 0. 0. 0. 0. 0. 0. 0. 0. 0. 0.
      0. 0. 0. 0. 0. 0. 0. 0. 0. 0. 0. 0. 0. 0. 0. 0. 0. 0. 0. 0. 0. 0.
      0. 0. 0. 0. 0. 0. 0. -1.08832830e-06 -2.19386275e-05
      -3.58943289e-05 -3.58943289e-05 -3.58943289e-05 -2.43569812e-05
      -1.26868099e-05 -1.15984813e-05 -2.68460440e-06 -2.68460440e-06
      5.91527396e-06 5.91527396e-06 0. 1.10552510e-05 1.69705254e-05
      5.43317537e-06 8.67451945e-06 -8.83339544e-06 -5.19099046e-07
      -1.05304593e-06 -1.05304593e-06 -7.61314004e-06 -1.10552510e-05
      -1.73079807e-05 -2.52848222e-05 1.37783593e-06 -1.32207560e-05
      -1.05361523e-05 -3.57698491e-06 0. 0. 0. 0. 0. 0. 0. 0. 0. 0. 0.
      0. 0. 0. 0. 0. 0. 0. 0. 0. 0. 0. 0. 0. 0. 0. 0. 0. 0. 0. 0. 0. 0.
      0. 0. 0. 0. 0. 0. 0. 0. -1.08832830e-06 -1.55134076e-05
      -3.58943289e-05 -3.58943289e-05 -2.99790554e-05 -2.99790554e-05
      -2.99790554e-05 -2.83567806e-05 -2.83567806e-05 -1.94429049e-05
      3.23066956e-06 3.23066956e-06 -7.90555441e-06 -1.94429049e-05
      -8.38765300e-06 -8.38765300e-06 -6.46146282e-06 2.22185531e-06
      -8.56554720e-07 -1.05304593e-06 -7.61314004e-06 1.08832830e-06
      -1.10552510e-05 -1.10552510e-05 -8.23332357e-06 4.06244044e-06
      -4.62087792e-06 -1.00022053e-05 -2.35378252e-06 0. 0. 0. 0. 0. 0.
      0. 0. 0. 0. 0. 0. 0. 0. 0. 0. 0. 0. 0. 0. 0. 0. 0. 0. 0. 0. 0. 0.
      0. 0. 0. 0. 0. 0. 0. 0. 0. 0. 0. 0. 0. 0. -1.62227525e-06
      -3.32097261e-05 -3.58943289e-05 -1.89238053e-05 -1.89238053e-05
      -2.99790554e-05 -1.89238053e-05 -1.89238053e-05 -2.88907286e-05
      -2.65369454e-05 -8.38765300e-06 -8.38765300e-06 -8.38765300e-06
      -8.38765300e-06 -8.38765300e-06 -6.46146282e-06 1.68790837e-06
      3.57698491e-06 -1.10552510e-05 6.03510975e-21 6.03510975e-21
      6.03510975e-21 1.11362242e-05 1.51176910e-05 1.15190578e-05
      -4.08693086e-06 -8.77900220e-06 0. 0. 0. 0. 0. 0. 0. 0. 0. 0. 0.
      0. 0. 0. 0. 0. 0. 0. 0. 0. 0. 0. 0. 0. 0. 0. 0. 0. 0. 0. 0. 0. 0.
      0. 0. 0. 0. 0. 0. 0. 0. 0. 0. 0. -1.93185933e-05 -2.21544742e-05
      -1.89238053e-05 -1.89238053e-05 -1.89238053e-05 -1.89238053e-05
      -1.89238053e-05 -1.89238053e-05 -1.78354767e-05 -1.78354767e-05
      -9.05647448e-06 -1.53468209e-05 -1.53468209e-05 -9.05647448e-06
      -1.54816935e-05 -4.73731188e-06 6.03510975e-21 6.03510975e-21
      6.03510975e-21 6.03510975e-21 1.11362242e-05 2.53581784e-05
      1.51176910e-05 1.15190578e-05 7.10319409e-06 0. 0. 0. 0. 0. 0. 0.
      0. 0. 0. 0. 0. 0. 0. 0. 0. 0. 0. 0. 0. 0. 0. 0. 0. 0. 0. 0. 0. 0.
      0. 0. 0. 0. 0. 0. 0. 0. 0. 0. 0. 0. 0. 0. 0. 0. -5.33946888e-07
      -1.75714933e-06 -2.21544742e-05 -1.89238053e-05 -1.89238053e-05
      -1.89238053e-05 -1.89238053e-05 -1.89238053e-05 -1.89238053e-05
      -1.89238053e-05 -1.89238053e-05 -1.89238053e-05 -1.89238053e-05
      -1.42368435e-05 -1.23106538e-05 -8.31429679e-06 6.03510975e-21
      6.03510975e-21 1.11362242e-05 1.11362242e-05 2.53581784e-05
      2.53581784e-05 1.70438816e-05 1.56516380e-05 1.69705254e-05 0. 0.
      0. 0. 0. 0. 0. 0. 0. 0. 0. 0. 0. 0. 0. 0. 0. 0. 0. 0. 0. 0. 0. 0.
      0. 0. 0. 0. 0. 0. 0. 0. 0. 0. 0. 0. 0. 0. 0. 0. 0. 0. 0. 0. 0. 0.
      0. -7.09404094e-06 -1.05361523e-05 -2.16723765e-05 -2.72944508e-05
      -2.72944508e-05 -2.99790554e-05 -3.58943289e-05 -3.32097261e-05
      -3.58943289e-05 -3.58943289e-05 -3.58943289e-05 -2.99790554e-05
      -2.44542334e-05 -2.22627623e-05 -2.74857098e-06 -1.42859208e-05
      8.38765300e-06 8.38765300e-06 8.38765300e-06 1.48368745e-05
      -1.31888680e-06 8.68331790e-06 0. 0. 0. 0. 0. 0. 0. 0. 0. 0. 0. 0.
      0. 0. 0. 0. 0. 0. 0. 0. 0. 0. 0. 0. 0. 0. 0. 0. 0. 0. 0. 0. 0. 0.
      0. 0. 0. 0. 0. 0. 0. 0. 0. 0. 0. 0. 0. 0. 0. -7.51354855e-06
      -1.04012779e-05 -1.05361523e-05 -2.20735019e-05 -3.32097261e-05
      -2.20735019e-05 -2.20735019e-05 -2.20735019e-05 -2.20735019e-05
      -2.20735019e-05 -3.32097261e-05 -2.01473122e-05 7.33564107e-08
      8.38765300e-06 8.38765300e-06 8.38765300e-06 8.38765300e-06
      8.92160006e-06 7.50485333e-06 8.68331790e-06 8.68331790e-06 0. 0.
      0. 0. 0. 0. 0. 0. 0. 0. 0. 0. 0. 0. 0. 0. 0. 0. 0. 0. 0. 0. 0. 0.
      0. 0. 0. 0. 0. 0. 0. 0. 0. 0. 0. 0. 0. 0. 0. 0. 0. 0. 0. 0. 0. 0.
      0. 0. 0. 0. 0. -3.97605800e-06 -3.97605800e-06 -1.62227525e-06
      -1.05361523e-05 -1.05361523e-05 -1.05361523e-05 -1.05361523e-05
      -1.05361523e-05 -8.60996170e-06 -8.60996170e-06 7.33564107e-08
      8.05019772e-06 1.48128729e-05 1.53468209e-05 1.78354767e-05
      1.89238053e-05 8.68331790e-06 8.68331790e-06 8.68331790e-06 0. 0.
      0. 0. 0. 0. 0. 0. 0. 0. 0. 0. 0. 0. 0. 0. 0. 0. 0. 0. 0. 0. 0. 0.
      0. 0. 0. 0. 0. 0. 0. 0. 0. 0. 0. 0. 0. 0. 0. 0. 0. 0. 0. 0. 0. 0.
      0. 0. 0. 0. 0. 0. 0. 0. 0. -1.04012779e-05 -4.11093197e-06
      -4.11093197e-06 -4.11093197e-06 -1.05361523e-05 -8.60996170e-06
      -9.86733085e-06 5.38859967e-06 7.59499017e-06 5.08468520e-06
      1.06095085e-05 1.06095085e-05 8.68331790e-06 8.68331790e-06
      5.08468520e-06 0. 0. 0. 0. 0. 0. 0. 0. 0. 0. 0. 0. 0. 0. 0. 0. 0.
      0. 0. 0. 0. 0. 0. 0. 0. 0. 0. 0. 0. 0. 0. 0. 0. 0. 0. 0. 0. 0. 0.
      0. 0. 0. 0. 0. 0. 0. 0. 0. 0. 0. 0. 0. 0. 0. 0. 0. 0. 0. 0. 0. 0.
      0. 0. 0. 0. 0. 0. 0. 0. 0. 0. 0. 0. 0. 0. 0. 0. 0. 0. 0. 0. 0. 0.
      0. 0. 0. 0. 0. 0. 0. 0. 0. 0. 0. 0. 0. 0. 0. 0. 0. 0. 0. 0. 0. 0.
      0. 0. 0. 0. 0. 0. 0. 0. 0. 0. 0. 0. 0. 0. 0. 0. 0. 0. 0. 0. 0. 0.
      0. 0. 0. 0. 0. 0. 0. 0. 0. 0. 0. 0. 0. 0. 0. 0. 0. 0. 0. 0. 0. 0.
      0. 0. 0. 0. 0. 0. 0. 0. 0. 0. 0. 0. 0. 0. 0. 0. 0. 0. 0. 0. 0. 0.
      0. 0. 0. 0. 0. 0. 0. 0. 0. 0. 0. 0. 0. 0. 0. 0. 0. 0. 0. 0. 0. 0.
      0. 0. 0. 0. 0. 0. 0. 0. 0. 0. 0. 0. 0. 0. 0. 0. 0. 0. 0. 0. 0. 0.
      0. 0. 0. 0. 0. 0. 0. 0. 0. 0. 0. 0. 0. 0. 0. 0. 0. 0. 0. 0. 0. 0.
      0. 0. 0. 0. 0. 0. 0. 0. 0. 0. 0. 0. 0. 0. 0. 0. 0. 0. 0. 0. 0. 0.
      0. 0. 0. 0. 0. 0. 0. 0. 0. 0. 0. 0. 0. 0. 0. 0. 0. 0. 0. 0. 0. 0.
      0. 0. 0. 0. 0. 0. 0. 0. 0. 0. 0. 0. 0. 0. 0. 0. 0. 0. 0. 0. 0. 0.
      0. 0. 0. 0. 0. 0. 0. 0. 0. 0. 0. 0. 0. 0. 0. 0. 0. 0. 0. 0. 0. 0.
      0. 0. 0. 0. 0. 0. 0. 0. 0. 0. 0. 0. 0. 0. 0. 0. 0. 0. 0. 0. 0. 0.
      0. 0. 0. 0. 0. 0. 0. 0. 0. 0. 0. 0. 0. 0. 0. 0. 0. 0. 0. 0. 0. 0.
      0. 0. 0. 0. 0. 0. 0. 0. 0. 0. 0. 0. 0. 0. 0. 0. 0. 0. 0. 0. 0. 0.
      0. 0. 0. 0. 0. 0. 0. 0. 0. 0. 0. 0. 0. 0. 0. 0. 0. 0. 0. 0. 0. 0.
      0. 0. 0. 0. 0. 0. 0. 0. 0. 0. 0. 0. 0. 0. 0. 0. 0. 0. 0. 0. 0. 0.
      0. 0. 0. 0. 0. 0. 0. 0. 0. 0. 0. 0. 0. 0. 0. 0. 0. 0. 0. 0. 0. 0.
      0. 0. 0. 0. 0. 0. 0. 0. 0. 0. 0. 0. 0. 0. 0. 0. 0. 0. 0. 0. 0. 0.
      0. 0. 0. 0. 0. 0. 0. 0. 0. 0. 0. 0. 0. 0. 0. 0. 0. 0. 0. 0. 0. 0.
      0. 0. 0. 0. 0. 0. 0. 0. 0. 0. 0. 0. 0. 0. 0. 0. 0. 0. 0. 0. 0. 0.
      0. 0. 0. 0. 0. 0. 0. 0. 0. 0. 0. 0. 0. 0. 0. 0. 0. 0. 0. 0. 0. 0.
      0. 0. 0. 0. 0. 0. 0. 0. 0. 0. 0. 0. 0. 0. 0. 0. 0. 0. 0. 0. 0. 0.
      0. 0. 0. 0. 0. 0. 0. 0. 0. 0. 0. 0. 0. 0. 0. 0. 0. 0. 0. 0. 0. 0.
      0. 0. 0. 0. 0. 0. 0. 0. 0. 0. 0. 0. 0. 0. 0. 0. 0. 0. 0. 0. 0. 0.
      0. 0. 0. 0. 0. 0. 0. 0. 0. 0. 0. 0. 0. 0. 0. 0. 0. 0. 0. 0. 0. 0.
      0. 0. 0. 0. 0. 0. 0. 0. 0. 0. 0. 0. 0. 0. 0. 0. 0. 0. 0. 0. 0. 0.
      0. 0. 0. 0. 0. 0. 0. 0. 0. 0. 0. 0. 0. 0. 0. 0. 0. 0. 0. 0. 0. 0.
      0. 0. 0. 0. 0. 0. 0. 0. 0. 0. 0. 0. 0. 0. 0. 0. 0. 0. 0. 0. 0. 0.
      0. 0. 0. 0. 0. 0. 0. 0. 0. 0. 0. 0. 0. 0. 0. 0. 0. 0. 0. 0. 0. 0.
      0. 0. 0. 0. 0. 0. 0. 0. 0. 0. 0. 0. 0. 0. 0. 0. 0. 0. 0. 0. 0. 0.
      0. 0. 0. 0. 0. 0. 0. 0. 0. 0. 0. 0. 0. 0. 0. 0. 0. 0. 0. 0. 0. 0.
      0. 0. 0. 0. 0. 0. 0. 0. 0. 0. 0. 0. 0. 0. 0. 0. 0. 0. 0. 0. 0. 0.
      0. 0. 0. 0. 0. 0. 0.</_>
    <_>
      0. 0. 0. 0. 0. 0. 0. 0. 0. 0. 0. 0. 0. 0. 0. 0. 0. 0. 0. 0. 0. 0.
      0. 0. 0. 0. 0. 0. 0. 0. 0. 0. 0. 0. 0. 0. 0. 0. 0. 0. 0. 0. 0. 0.
      0. 0. 0. 0. 0. 0. 0. 0. 0. 0. 0. 0. 0. 0. 0. 0. 0. 0. 0. 0. 0. 0.
      0. 0. 0. 0. 0. 0. 0. 0. 0. 0. 0. 0. 0. 0. 0. 0. 0. 0. 0. 0. 0. 0.
      0. 0. 0. 0. 0. 0. 0. 0. 0. 0. 0. 0. 0. 0. 0. 0. 0. 0. 0. 0. 0. 0.
      0. 0. 0. 0. 0. 0. 0. 0. 0. 0. 0. 0. 0. 0. 0. 0. 0. 0. 0. 0. 0. 0.
      0. 0. 0. 0. 0. 0. 0. 0. 0. 0. 0. 0. 0. 0. 0. 0. 0. 0. 0. 0. 0. 0.
      0. 0. 0. 0. 0. 0. 0. 0. 0. 0. 0. 0. 0. 0. 0. 0. 0. 0. 0. 0. 0. 0.
      0. 0. 0. 0. 0. 0. 0. 0. 0. 0. 0. 0. 0. 0. 0. 0. 0. 0. 0. 0. 0. 0.
      0. 0. 0. 0. 0. 0. 0. 0. 0. 0. 0. 0. 0. 0. 0. 0. 0. 0. 0. 0. 0. 0.
      0. 0. 0. 0. 0. 0. 0. 0. 0. 0. 0. 0. 0. 0. 0. 0. 0. 0. 0. 0. 0. 0.
      0. 0. 0. 0. 0. 0. 0. 0. 0. 0. 0. 0. 0. 0. 0. 0. 0. 0. 0. 0. 0. 0.
      0. 0. 0. 0. 0. 0. 0. 0. 0. 0. 0. 0. 0. 0. 0. 0. 0. 0. 0. 0. 0. 0.
      0. 0. 0. 0. 0. 0. 0. 0. 0. 0. 0. 0. 0. 0. 0. 0. 0. 0. 0. 0. 0. 0.
      0. 0. 0. 0. 0. 0. 0. 0. 0. 0. 0. 0. 0. 0. 0. 0. 0. 0. 0. 0. 0. 0.
      0. 0. 0. 0. 0. 0. 0. 0. 0. 0. 0. 0. 0. 0. 0. 0. 0. 0. 0. 0. 0. 0.
      0. 0. 0. 0. 0. 0. 0. 0. 0. 0. 0. 0. 0. 0. 0. 0. 0. 0. 0. 0. 0. 0.
      0. 0. 0. 0. 0. 0. 0. 0. 0. 0. 0. 0. 0. 0. 0. 0. 0. 0. 0. 0. 0. 0.
      0. 0. 0. 0. 0. 0. 0. 0. 0. 0. 0. 0. 0. 0. 0. 0. 0. 0. 0. 0. 0. 0.
      0. 0. 0. 0. 0. 0. 0. 0. 0. 0. 0. 0. 0. 0. 0. 0. 0. 0. 0. 0. 0. 0.
      0. 0. 0. 0. 0. 0. 0. 0. 0. 0. 0. 0. 0. 0. 0. 0. 0. 0. 0. 0. 0. 0.
      0. 0. 0. 0. 0. 0. 0. 0. 0. 0. 0. 0. 0. 0. 0. 0. 0. 0. 0. 0. 0. 0.
      0. 0. 0. 0. 0. 0. 0. 0. 0. 0. 0. 0. 0. 0. 0. 0. 0. 0. 0. 0. 0. 0.
      0. 0. 0. 0. 0. 0. 0. 0. 0. 0. 0. 0. 0. 0. 0. 0. 0. 0. 0. 0. 0. 0.
      0. 0. 0. 0. 0. 0. 0. 0. 0. 0. 0. 0. 0. 0. 0. 0. 0. 0. 0. 0. 0. 0.
      0. 0. 0. 0. 0. 0. 0. 0. 0. 0. 0. 0. 0. 0. 0. 0. 0. 0. 0. 0. 0. 0.
      0. 0. 0. 0. 0. 0. 0. 0. 0. 0. 0. 0. 0. 0. 0. 0. 0. 0. 0. 0. 0. 0.
      0. 0. 0. 0. 0. 0. 0. 0. 0. 0. 0. 0. 0. 0. 0. 0. 0. 0. 0. 0. 0. 0.
      0. 0. 0. 0. 0. 0. 0. 0. 0. 0. 0. 0. 0. 0. 0. 0. 0. 0. 0. 0. 0. 0.
      0. 0. 0. 0. 0. 0. 0. 0. 0. 0. 0. 0. 0. 0. 0. 0. 0. 0. 0. 0. 0. 0.
      0. 0. 0. 0. 0. 0. 0. 0. 0. 0. 0. 0. 0. 0. 0. 0. 0. 0. 0. 0. 0. 0.
      0. 0. 0. 0. 0. 0. 0. 0. 0. 0. 0. 0. 0. 0. 0. 0. 0. 0. 0. 0. 0. 0.
      0. 0. 0. 0. 0. 0. 0. 0. 0. 0. 0. 0. 0. 0. 0. 0. 0. 0. 0. 0. 0. 0.
      0. 0. 0. 0. 0. 0. 0. 0. 0. 0. 0. 0. 0. 0. 0. 0. 0. 0. 0. 0. 0. 0.
      0. 0. 0. 0. 0. 0. 0. 0. 0. 0. 0. 0. 0. 0. 0. 0. 0. 0. 0. 0. 0. 0.
      0. 0. 0. 0. 0. 0. 0. 0. 0. 0. 0. 0. 0. 0. 0. 0. 0. 0. 0. 0. 0. 0.
      0. 0. 0. 0. 0. 0. 0. 0. 0. 0. 0. 0. 0. 0. 0. -1.08538950e-06
      -5.49990887e-07 1.05919016e-05 1.05919016e-05 -2.91302513e-07
      1.05707213e-05 -6.25040366e-06 2.49635536e-06 2.49635536e-06 0. 0.
      0. 0. 0. 0. 0. 0. 0. 0. 0. 0. 0. 0. 0. 0. 0. 0. 0. 0. 0. 0. 0. 0.
      0. 0. 0. 0. 0. 0. 0. 0. 0. 0. 0. 0. 0. 0. 0. 0. 0. 0. 0. 0. 0. 0.
      0. 0. 0. 0. 0. 0. 0. 0. 0. 0. 0. 0. 0. 0. -3.16858927e-06
      8.94062487e-06 5.65819482e-06 2.15970795e-05 1.60161599e-05
      1.60161599e-05 1.60161599e-05 -8.87296949e-07 -4.92758954e-06
      -4.16995272e-06 0. 0. 0. 0. 0. 0. 0. 0. 0. 0. 0. 0. 0. 0. 0. 0. 0.
      0. 0. 0. 0. 0. 0. 0. 0. 0. 0. 0. 0. 0. 0. 0. 0. 0. 0. 0. 0. 0. 0.
      0. 0. 0. 0. 0. 0. 0. 0. 0. 0. 0. 0. 0. 0. 0. 0. 0. 0. 0. 0. 0.
      -2.93116454e-06 4.81311599e-06 1.67629241e-05 1.60161599e-05
      1.60161599e-05 1.60161599e-05 1.60161599e-05 3.94685685e-06
      3.56867440e-06 -7.51138714e-06 -8.45078830e-07 0. 0. 0. 0. 0. 0.
      0. 0. 0. 0. 0. 0. 0. 0. 0. 0. 0. 0. 0. 0. 0. 0. 0. 0. 0. 0. 0. 0.
      0. 0. 0. 0. 0. 0. 0. 0. 0. 0. 0. 0. 0. 0. 0. 0. 0. 0. 0. 0. 0. 0.
      0. 0. 0. 0. 0. 0. 0. 0. -4.34809181e-07 -1.89531795e-06
      -1.61897806e-05 7.13676400e-07 -4.86724230e-06 -4.86724230e-06
      -4.86724230e-06 -4.86724230e-06 3.94685685e-06 3.56867440e-06
      3.15276998e-06 -8.45078830e-07 0. 0. 0. 0. 0. 0. 0. 0. 0. 0. 0. 0.
      0. 0. 0. 0. 0. 0. 0. 0. 0. 0. 0. 0. 0. 0. 0. 0. 0. 0. 0. 0. 0. 0.
      0. 0. 0. 0. 0. 0. 0. 0. 0. 0. 0. 0. 0. 0. 0. 0. 0. 0. 0. 0. 0. 0.
      4.86724230e-06 7.60102239e-06 -8.89986495e-06 -1.60702857e-05
      -4.12047757e-06 -4.86724230e-06 -4.86724230e-06 -4.86724230e-06
      -4.86724230e-06 -4.86724230e-06 -4.44932584e-06 -2.21011123e-06
      5.52963093e-06 -8.45078830e-07 0. 0. 0. 0. 0. 0. 0. 0. 0. 0. 0. 0.
      0. 0. 0. 0. 0. 0. 0. 0. 0. 0. 0. 0. 0. 0. 0. 0. 0. 0. 0. 0. 0. 0.
      0. 0. 0. 0. 0. 0. 0. 0. 0. 0. 0. 0. 0. 0. 0. 0. 0. 0.
      4.86724230e-06 4.86724230e-06 4.86724230e-06 4.86724230e-06
      3.78185268e-06 2.60937054e-06 -2.80686140e-06 7.13676400e-07
      7.13676400e-07 -4.86724230e-06 -4.86724230e-06 -4.86724230e-06
      -4.86724230e-06 -4.86724230e-06 -1.69365449e-05 4.89148897e-06
      -5.01503155e-06 -8.45078830e-07 0. 0. 0. 0. 0. 0. 0. 0. 0. 0. 0.
      0. 0. 0. 0. 0. 0. 0. 0. 0. 0. 0. 0. 0. 0. 0. 0. 0. 0. 0. 0. 0. 0.
      0. 0. 0. 0. 0. 0. 0. 0. 0. 0. 0. 0. 0. 0. 0. 0. 0. 4.86724230e-06
      4.86724230e-06 4.86724230e-06 4.86724230e-06 4.86724230e-06
      4.86724230e-06 1.24850530e-05 2.87237140e-06 5.58091870e-06
      7.13676400e-07 -4.86724230e-06 -4.86724230e-06 -4.86724230e-06
      -4.86724230e-06 -4.86724230e-06 -4.86724230e-06 -9.70139627e-06
      4.89148897e-06 -8.45078830e-07 0. 0. 0. 0. 0. 0. 0. 0. 0. 0. 0. 0.
      0. 0. 0. 0. 0. 0. 0. 0. 0. 0. 0. 0. 0. 0. 0. 0. 0. 0. 0. 0. 0. 0.
      0. 0. 0. 0. 0. 0. 0. 0. 0. 0. 0. 0. 0. 0. 4.86724230e-06
      4.86724230e-06 4.86724230e-06 4.86724230e-06 4.86724230e-06
      4.86724230e-06 4.86724230e-06 4.86724230e-06 1.50965898e-05
      2.82540313e-05 1.48221807e-05 5.58091870e-06 -4.86724230e-06
      -4.86724230e-06 -4.86724230e-06 -4.86724230e-06 -4.86724230e-06
      -4.86724230e-06 -4.86724230e-06 -9.70139627e-06 -3.50469395e-06
      8.73368845e-06 -8.45078830e-07 0. 0. 0. 0. 0. 0. 0. 0. 0. 0. 0. 0.
      0. 0. 0. 0. 0. 0. 0. 0. 0. 0. 0. 0. 0. 0. 0. 0. 0. 0. 0. 0. 0. 0.
      0. 0. 0. 0. 0. 0. 0. 0. 0. 0. 0. 0. 4.86724230e-06 4.86724230e-06
      4.86724230e-06 4.86724230e-06 4.86724230e-06 4.86724230e-06 0.
      1.32281434e-06 1.31946044e-05 1.62711349e-05 1.13597043e-05
      5.58091870e-06 5.58091870e-06 -4.86724230e-06 -4.86724230e-06
      -4.86724230e-06 -4.86724230e-06 -4.86724230e-06 -4.86724230e-06
      -4.86724230e-06 -4.86724230e-06 3.68816859e-06 -1.93046844e-06
      -8.45078830e-07 0. 0. 0. 0. 0. 0. 0. 0. 0. 0. 0. 0. 0. 0. 0. 0. 0.
      0. 0. 0. 0. 0. 0. 0. 0. 0. 0. 0. 0. 0. 0. 0. 0. 0. 0. 0. 0. 0. 0.
      0. 0. 0. 0. 0. 0. 0. 0. 0. 0. 0. 0. 0. 5.02680223e-06
      1.56909591e-05 1.58532184e-05 1.00744319e-05 5.58091870e-06
      5.58091870e-06 5.58091870e-06 -4.86724230e-06 -4.86724230e-06
      -4.86724230e-06 -4.86724230e-06 -4.86724230e-06 -4.86724230e-06
      -4.86724230e-06 -4.86724230e-06 3.68816859e-06 5.65886921e-07
      -8.45078830e-07 0. 0. 0. 0. 0. 0. 0. 0. 0. 0. 0. 0. 0. 0. 0. 0. 0.
      0. 0. 0. 0. 0. 0. 0. 0. 0. 0. 0. 0. 0. 0. 0. 0. 0. 0. 0. 0. 0. 0.
      0. 0. 0. 0. 0. 0. 0. 0. 0. 0. 2.49635536e-06 3.70398789e-06
      3.70398789e-06 1.56909591e-05 1.73565240e-05 1.00744319e-05
      1.67824942e-06 5.58091870e-06 5.58091870e-06 -7.19978005e-21
      -4.86724230e-06 -4.86724230e-06 -4.86724230e-06 -4.86724230e-06
      -4.86724230e-06 -4.86724230e-06 -4.86724230e-06 -9.70139627e-06
      3.56867440e-06 5.65886921e-07 -8.45078830e-07 0. 0. 0. 0. 0. 0. 0.
      0. 0. 0. 0. 0. 0. 0. 0. 0. 0. 0. 0. 0. 0. 0. 0. 0. 0. 0. 0. 0. 0.
      0. 0. 0. 0. 0. 0. 0. 0. 0. 0. 0. 0. 0. 0. 0. 0. 0. 0. 0.
      1.20763264e-06 1.56909591e-05 2.77602630e-05 3.25944166e-05
      3.25944166e-05 2.25616513e-05 9.22935305e-06 7.13676400e-07
      5.58091870e-06 -7.19978005e-21 -7.19978005e-21 -4.44932584e-06
      7.61997717e-06 -4.86724230e-06 -4.86724230e-06 -4.86724230e-06
      -4.86724230e-06 -4.86724230e-06 -2.17706984e-05 3.56867440e-06
      -7.51138714e-06 0. 0. 0. 0. 0. 0. 0. 0. 0. 0. 0. 0. 0. 0. 0. 0. 0.
      0. 0. 0. 0. 0. 0. 0. 0. 0. 0. 0. 0. 0. 0. 0. 0. 0. 0. 0. 0. 0. 0.
      0. 0. 0. 0. 0. 0. 0. 0. 0. 3.70398789e-06 1.56909591e-05
      2.77602630e-05 3.25944166e-05 3.25944166e-05 2.74953582e-05
      1.00744319e-05 7.13676400e-07 -4.86724230e-06 -4.86724230e-06
      -1.20693030e-05 4.17916539e-07 -4.44932584e-06 -4.32983143e-06
      7.13676400e-07 7.13676400e-07 -4.86724230e-06 -4.86724230e-06
      -4.86724230e-06 -1.69365449e-05 4.89148897e-06 -7.22835750e-07
      -8.45078830e-07 0. 0. 0. 0. 0. 0. 0. 0. 0. 0. 0. 0. 0. 0. 0. 0. 0.
      0. 0. 0. 0. 0. 0. 0. 0. 0. 0. 0. 0. 0. 0. 0. 0. 0. 0. 0. 0. 0. 0.
      0. 0. 0. 0. 0. 0. 0. 0. 2.53044709e-06 1.56909591e-05
      1.56909591e-05 3.17493359e-05 2.85807473e-05 2.73758651e-05
      9.95493792e-06 7.13676400e-07 -4.86724230e-06 -1.20693030e-05
      -1.20693030e-05 -5.62387004e-06 9.75873081e-06 4.06635127e-06
      7.13676400e-07 7.13676400e-07 -4.86724230e-06 -4.86724230e-06
      -4.86724230e-06 -1.69365449e-05 3.68816859e-06 1.12300440e-05
      -8.45078830e-07 0. 0. 0. 0. 0. 0. 0. 0. 0. 0. 0. 0. 0. 0. 0. 0. 0.
      0. 0. 0. 0. 0. 0. 0. 0. 0. 0. 0. 0. 0. 0. 0. 0. 0. 0. 0. 0. 0. 0.
      0. 0. 0. 0. 0. 0. 0. 0. 2.53044709e-06 1.56909591e-05
      2.05251126e-05 3.17493359e-05 2.73758651e-05 9.10985909e-06
      7.13676400e-07 -4.86724230e-06 -1.69365449e-05 -2.17706984e-05
      -1.94339045e-05 8.55109829e-06 4.89148897e-06 1.05919016e-05
      9.10985909e-06 7.13676400e-07 -4.86724230e-06 -4.86724230e-06
      -4.86724230e-06 -1.69365449e-05 3.68816859e-06 5.64912534e-06 0.
      0. 0. 0. 0. 0. 0. 0. 0. 0. 0. 0. 0. 0. 0. 0. 0. 0. 0. 0. 0. 0. 0.
      0. 0. 0. 0. 0. 0. 0. 0. 0. 0. 0. 0. 0. 0. 0. 0. 0. 0. 0. 0. 0. 0.
      0. 0. 0. 1.32281434e-06 1.56909591e-05 2.83404370e-05
      2.74953582e-05 9.10985909e-06 9.10985909e-06 -4.86724230e-06
      -2.17706984e-05 -2.17706984e-05 -3.49653019e-05 -1.43284115e-05
      6.05474315e-06 4.89148897e-06 1.04724077e-05 7.13676400e-07
      -4.86724230e-06 -4.86724230e-06 -4.86724230e-06 -4.86724230e-06
      -9.70139627e-06 3.56867440e-06 -1.93046844e-06 0. 0. 0. 0. 0. 0.
      0. 0. 0. 0. 0. 0. 0. 0. 0. 0. 0. 0. 0. 0. 0. 0. 0. 0. 0. 0. 0. 0.
      0. 0. 0. 0. 0. 0. 0. 0. 0. 0. 0. 0. 0. 0. 0. 0. 0. 0. 0. 0. 0.
      1.56909591e-05 2.35062835e-05 2.15970795e-05 4.27570512e-06
      -1.61897806e-05 -2.30935129e-05 -2.43011455e-05 -2.67975011e-05
      -1.43284115e-05 -5.93222831e-06 6.17423711e-06 8.09554604e-06
      9.52777555e-06 9.10985909e-06 -4.86724230e-06 -4.86724230e-06
      -4.86724230e-06 -4.86724230e-06 -9.70139627e-06 4.89148897e-06
      -1.93046844e-06 0. 0. 0. 0. 0. 0. 0. 0. 0. 0. 0. 0. 0. 0. 0. 0. 0.
      0. 0. 0. 0. 0. 0. 0. 0. 0. 0. 0. 0. 0. 0. 0. 0. 0. 0. 0. 0. 0. 0.
      0. 0. 0. 0. 0. 0. 0. 0. 0. 1.18717899e-05 1.56909591e-05
      4.69362158e-06 -7.79359743e-06 -1.61897806e-05 -2.43011455e-05
      -2.67975011e-05 -3.74616575e-05 -1.91956533e-05 -5.81273434e-06
      -5.81273434e-06 4.25958842e-06 1.29627888e-05 1.54260561e-05
      9.10985909e-06 7.13676400e-07 -4.86724230e-06 -4.86724230e-06
      -4.86724230e-06 -9.70139627e-06 -4.82750829e-06 -6.30375462e-06 0.
      0. 0. 0. 0. 0. 0. 0. 0. 0. 0. 0. 0. 0. 0. 0. 0. 0. 0. 0. 0. 0. 0.
      0. 0. 0. 0. 0. 0. 0. 0. 0. 0. 0. 0. 0. 0. 0. 0. 0. 0. 0. 0. 0. 0.
      0. 0. 0. -1.84577493e-06 1.14369805e-05 3.48598905e-06
      -1.14975855e-05 -3.18807397e-05 -2.67975011e-05 -3.74616575e-05
      -3.74616575e-05 -1.90761584e-05 -5.81273434e-06 4.02216347e-06
      5.34497758e-06 4.79498703e-06 1.05919016e-05 9.22935305e-06
      7.13676400e-07 -4.86724230e-06 -4.86724230e-06 -4.86724230e-06
      -9.70139627e-06 -4.82750829e-06 5.65886921e-07 -1.08538950e-06 0.
      0. 0. 0. 0. 0. 0. 0. 0. 0. 0. 0. 0. 0. 0. 0. 0. 0. 0. 0. 0. 0. 0.
      0. 0. 0. 0. 0. 0. 0. 0. 0. 0. 0. 0. 0. 0. 0. 0. 0. 0. 0. 0. 0. 0.
      0. 0. -2.93116454e-06 -8.82944460e-06 -2.34845575e-05
      -2.90654752e-05 -3.74616575e-05 -3.74616575e-05 -3.74616575e-05
      -3.73421644e-05 -1.90761584e-05 -1.93046844e-06 4.02216347e-06
      4.86724230e-06 8.80865537e-06 1.54260561e-05 2.17165725e-05
      7.13676400e-07 -4.86724230e-06 -4.86724230e-06 -4.86724230e-06
      -9.70139627e-06 -8.87296949e-07 5.65886921e-07 -8.45078830e-07 0.
      0. 0. 0. 0. 0. 0. 0. 0. 0. 0. 0. 0. 0. 0. 0. 0. 0. 0. 0. 0. 0. 0.
      0. 0. 0. 0. 0. 0. 0. 0. 0. 0. 0. 0. 0. 0. 0. 0. 0. 0. 0. 0. 0. 0.
      0. -3.16858927e-06 -1.08778431e-05 -2.34845575e-05 -2.34845575e-05
      -3.74616575e-05 -3.74616575e-05 -3.74616575e-05 -3.74616575e-05
      -1.59075698e-05 -6.42599753e-06 -8.45078830e-07 4.86724230e-06
      4.86724230e-06 1.73896115e-05 2.17165725e-05 9.10985909e-06
      7.13676400e-07 -4.86724230e-06 -4.86724230e-06 -4.86724230e-06
      -9.70139627e-06 -9.28347981e-06 -5.01503155e-06 0. 0. 0. 0. 0. 0.
      0. 0. 0. 0. 0. 0. 0. 0. 0. 0. 0. 0. 0. 0. 0. 0. 0. 0. 0. 0. 0. 0.
      0. 0. 0. 0. 0. 0. 0. 0. 0. 0. 0. 0. 0. 0. 0. 0. 0. 0. 0.
      -6.98366966e-06 -2.34845575e-05 -2.34845575e-05 -3.74616575e-05
      -3.74616575e-05 -3.74616575e-05 -3.74616575e-05 -1.90761584e-05
      -6.42599753e-06 -8.45078830e-07 0. 4.86724230e-06 6.19005641e-06
      1.56909591e-05 1.54260561e-05 1.48886447e-05 7.13676400e-07
      -4.86724230e-06 -4.86724230e-06 -4.86724230e-06 -9.70139627e-06
      -3.50469395e-06 -2.72200941e-06 -8.45078830e-07 0. 0. 0. 0. 0. 0.
      0. 0. 0. 0. 0. 0. 0. 0. 0. 0. 0. 0. 0. 0. 0. 0. 0. 0. 0. 0. 0. 0.
      0. 0. 0. 0. 0. 0. 0. 0. 0. 0. 0. 0. 0. 0. 0. 0. 0. -4.25397911e-06
      -1.01522592e-05 -2.34845575e-05 -2.90654752e-05 -3.74616575e-05
      -3.74616575e-05 -3.74616575e-05 -3.16828737e-05 -9.59458703e-06
      -8.45078830e-07 0. 0. 4.86724230e-06 4.86724230e-06 2.05582019e-05
      1.54260561e-05 8.33170589e-07 7.13676400e-07 -4.86724230e-06
      -4.86724230e-06 -4.86724230e-06 -9.70139627e-06 2.39513338e-06
      9.69958364e-06 -8.45078830e-07 0. 0. 0. 0. 0. 0. 0. 0. 0. 0. 0. 0.
      0. 0. 0. 0. 0. 0. 0. 0. 0. 0. 0. 0. 0. 0. 0. 0. 0. 0. 0. 0. 0. 0.
      0. 0. 0. 0. 0. 0. 0. 0. 0. 0. -3.16858927e-06 -1.01522592e-05
      -2.34845575e-05 -2.34845575e-05 -3.74616575e-05 -3.74616575e-05
      -3.74616575e-05 -3.16828737e-05 -1.79907693e-05 -6.42599753e-06 0.
      0. 4.86724230e-06 4.86724230e-06 4.86724230e-06 9.89404452e-06
      1.68824190e-05 9.22935305e-06 7.13676400e-07 -4.86724230e-06
      -4.86724230e-06 -4.86724230e-06 -9.70139627e-06 4.89148897e-06
      8.73368845e-06 -8.45078830e-07 0. 0. 0. 0. 0. 0. 0. 0. 0. 0. 0. 0.
      0. 0. 0. 0. 0. 0. 0. 0. 0. 0. 0. 0. 0. 0. 0. 0. 0. 0. 0. 0. 0. 0.
      0. 0. 0. 0. 0. 0. 0. 0. 0. 0. -1.08778431e-05 -1.09973380e-05
      -2.34845575e-05 -3.74616575e-05 -3.74616575e-05 -3.74616575e-05
      -3.15633770e-05 -1.90761584e-05 -1.90761584e-05 0. 0. 0.
      4.86724230e-06 4.86724230e-06 4.86724230e-06 6.72545548e-06
      1.05919016e-05 2.17165725e-05 7.13676400e-07 -4.86724230e-06
      -4.86724230e-06 -4.86724230e-06 -1.69365449e-05 -3.38519976e-06
      -1.93046844e-06 -8.45078830e-07 0. 0. 0. 0. 0. 0. 0. 0. 0. 0. 0.
      0. 0. 0. 0. 0. 0. 0. 0. 0. 0. 0. 0. 0. 0. 0. 0. 0. 0. 0. 0. 0. 0.
      0. 0. 0. 0. 0. 0. 0. 0. 0. 0. -4.25397911e-06 -1.08778431e-05
      -2.34845575e-05 -2.90654752e-05 -3.74616575e-05 -3.74616575e-05
      -3.74616575e-05 -1.90761584e-05 -1.59075698e-05 -8.45078830e-07 0.
      0. 0. 4.86724230e-06 4.86724230e-06 4.86724230e-06 1.56909591e-05
      1.05919016e-05 8.33170589e-07 7.13676400e-07 -4.86724230e-06
      -4.86724230e-06 -4.86724230e-06 -1.69365449e-05 5.01098293e-06
      -1.58193743e-08 -8.45078830e-07 0. 0. 0. 0. 0. 0. 0. 0. 0. 0. 0.
      0. 0. 0. 0. 0. 0. 0. 0. 0. 0. 0. 0. 0. 0. 0. 0. 0. 0. 0. 0. 0. 0.
      0. 0. 0. 0. 0. 0. 0. 0. 0. -3.16858927e-06 -5.09905794e-06
      -1.09973380e-05 -2.34845575e-05 -3.74616575e-05 -3.74616575e-05
      -3.74616575e-05 -3.74616575e-05 -1.90761584e-05 -1.93046844e-06
      -8.45078830e-07 0. 0. 0. 4.86724230e-06 4.86724230e-06
      4.86724230e-06 1.56909591e-05 4.81311599e-06 9.10985909e-06
      -4.86724230e-06 -4.86724230e-06 -4.86724230e-06 -4.86724230e-06
      -9.70139627e-06 -7.59573095e-06 -1.58193743e-08 -8.45078830e-07 0.
      0. 0. 0. 0. 0. 0. 0. 0. 0. 0. 0. 0. 0. 0. 0. 0. 0. 0. 0. 0. 0. 0.
      0. 0. 0. 0. 0. 0. 0. 0. 0. 0. 0. 0. 0. 0. 0. 0. 0. 0.
      -3.16858927e-06 -4.25397911e-06 -1.01522592e-05 -2.34845575e-05
      -3.74616575e-05 -3.74616575e-05 -3.74616575e-05 -3.74616575e-05
      -3.15633770e-05 -1.90761584e-05 -8.45078830e-07 -8.45078830e-07 0.
      0. 0. 4.86724230e-06 4.86724230e-06 6.19005641e-06 1.56909591e-05
      1.05919016e-05 9.10985909e-06 -4.86724230e-06 -4.86724230e-06
      -4.86724230e-06 -4.86724230e-06 -9.70139627e-06 4.89148897e-06
      3.15276998e-06 -1.08538950e-06 0. 0. 0. 0. 0. 0. 0. 0. 0. 0. 0. 0.
      0. 0. 0. 0. 0. 0. 0. 0. 0. 0. 0. 0. 0. 0. 0. 0. 0. 0. 0. 0. 0. 0.
      0. 0. 0. 0. 0. 0. -3.16858927e-06 -4.25397911e-06 -1.08778431e-05
      -2.34845575e-05 -2.90654752e-05 -3.74616575e-05 -3.74616575e-05
      -3.74616575e-05 -3.16828737e-05 -1.90761584e-05 -5.09905794e-06
      -8.45078830e-07 0. 0. 0. 0. 0. 4.86724230e-06 6.19005641e-06
      1.23495256e-05 1.05919016e-05 7.13676400e-07 7.13676400e-07
      -4.86724230e-06 -4.86724230e-06 -4.86724230e-06 -2.17706984e-05
      -9.28347981e-06 3.15276998e-06 -1.08538950e-06 0. 0. 0. 0. 0. 0.
      0. 0. 0. 0. 0. 0. 0. 0. 0. 0. 0. 0. 0. 0. 0. 0. 0. 0. 0. 0. 0. 0.
      0. 0. 0. 0. 0. 0. 0. 0. 0. 0. 0. 0. -3.16858927e-06
      -1.08778431e-05 -1.09973380e-05 -2.34845575e-05 -3.74616575e-05
      -3.74616575e-05 -3.74616575e-05 -3.74616575e-05 -3.16828737e-05
      -1.91956533e-05 -5.09905794e-06 -5.21855191e-06 -4.37347308e-06
      -1.08538950e-06 -3.16858927e-06 -3.16858927e-06 -1.08538950e-06
      3.78185268e-06 1.93607775e-06 -2.68810481e-06 2.81934194e-06
      7.13676400e-07 7.13676400e-07 -4.86724230e-06 -4.86724230e-06
      -4.86724230e-06 -1.69365449e-05 -2.17706984e-05 -1.35313542e-07
      -1.75862770e-05 -3.16858927e-06 -3.28808346e-06 -3.28808346e-06 0.
      0. 0. 0. 0. 0. 0. 0. 0. 0. 0. 0. 0. 0. 0. 0. 0. 0. 0. 0. 0. 0. 0.
      0. 0. 0. 0. 0. 0. 0. 0. 0. 0. 0. 0. 0. 0. -4.01366833e-06
      -1.09973380e-05 -1.09973380e-05 -2.90654752e-05 -3.74616575e-05
      -3.74616575e-05 -3.74616575e-05 -3.74616575e-05 -3.74616575e-05
      -3.74616575e-05 -3.18807397e-05 -3.18807397e-05 -3.18807397e-05
      -2.34845575e-05 -3.10356627e-05 -3.18807397e-05 -2.70134969e-05
      -1.77722359e-05 -1.72945001e-05 -2.93502926e-05 -1.61897806e-05
      -4.86724230e-06 -4.86724230e-06 -4.86724230e-06 -4.86724230e-06
      -4.86724230e-06 -1.69365449e-05 -2.17706984e-05 -2.67975011e-05
      -3.18807397e-05 -2.26394786e-05 -2.52568752e-05 -4.37347308e-06
      -1.20488369e-06 0. 0. 0. 0. 0. 0. 0. 0. 0. 0. 0. 0. 0. 0. 0. 0. 0.
      0. 0. 0. 0. 0. 0. 0. 0. 0. 0. 0. 0. 0. 0. 0. 0. 0. 0. 0.
      -4.01366833e-06 -1.09973380e-05 -1.65782567e-05 -2.90654752e-05
      -3.74616575e-05 -3.74616575e-05 -3.74616575e-05 -3.74616575e-05
      -3.74616575e-05 -3.74616575e-05 -3.18807397e-05 -3.74616575e-05
      -3.74616575e-05 -3.74616575e-05 -3.74616575e-05 -3.74616575e-05
      -3.25944166e-05 -3.25944166e-05 -3.12716038e-05 -2.17706984e-05
      -2.17706984e-05 -4.86724230e-06 -4.86724230e-06 -4.86724230e-06
      -4.86724230e-06 -4.86724230e-06 -1.69365449e-05 -2.17706984e-05
      -2.67975011e-05 -3.74616575e-05 -3.74616575e-05 -3.74616575e-05
      -3.74616575e-05 -1.07994701e-05 -1.93046844e-06 0. 0. 0. 0. 0. 0.
      0. 0. 0. 0. 0. 0. 0. 0. 0. 0. 0. 0. 0. 0. 0. 0. 0. 0. 0. 0. 0. 0.
      0. 0. 0. 0. 0. 0. 0. -4.01366833e-06 -1.09973380e-05
      -1.65782567e-05 -2.90654752e-05 -3.74616575e-05 -3.74616575e-05
      -3.74616575e-05 -3.74616575e-05 -3.74616575e-05 -3.74616575e-05
      -3.74616575e-05 -3.74616575e-05 -3.74616575e-05 -3.74616575e-05
      -3.74616575e-05 -3.74616575e-05 -3.25944166e-05 -3.25944166e-05
      -3.12716038e-05 -2.17706984e-05 -2.17706984e-05 -4.86724230e-06
      -4.86724230e-06 -4.86724230e-06 -4.86724230e-06 -4.86724230e-06
      -9.70139627e-06 -2.17706984e-05 -3.62540268e-05 -3.74616575e-05
      -3.74616575e-05 -3.74616575e-05 -3.74616575e-05 -1.65782567e-05
      -2.04996263e-06 0. 0. 0. 0. 0. 0. 0. 0. 0. 0. 0. 0. 0. 0. 0. 0. 0.
      0. 0. 0. 0. 0. 0. 0. 0. 0. 0. 0. 0. 0. 0. 0. 0. 0. 0.
      -5.09905794e-06 -1.09973380e-05 -1.09973380e-05 -3.74616575e-05
      -3.74616575e-05 -3.74616575e-05 -3.74616575e-05 -3.74616575e-05
      -3.74616575e-05 -3.74616575e-05 -3.74616575e-05 -3.74616575e-05
      -3.74616575e-05 -3.74616575e-05 -3.74616575e-05 -3.74616575e-05
      -3.25944166e-05 -3.25944166e-05 -3.12716038e-05 -1.69034574e-05
      -2.17706984e-05 -4.86724230e-06 -4.86724230e-06 -4.86724230e-06
      -4.86724230e-06 -4.86724230e-06 -9.70139627e-06 -2.17706984e-05
      -2.55898685e-05 -3.74616575e-05 -3.74616575e-05 -3.74616575e-05
      -3.74616575e-05 -1.65782567e-05 -5.21855191e-06 -8.45078830e-07 0.
      0. 0. 0. 0. 0. 0. 0. 0. 0. 0. 0. 0. 0. 0. 0. 0. 0. 0. 0. 0. 0. 0.
      0. 0. 0. 0. 0. 0. 0. 0. 0. 0. 0. -3.16858927e-06 -1.09973380e-05
      -1.09973380e-05 -2.90654752e-05 -3.74616575e-05 -3.74616575e-05
      -2.49744389e-05 -3.74616575e-05 -3.74616575e-05 -3.74616575e-05
      -3.74616575e-05 -3.74616575e-05 -3.74616575e-05 -3.74616575e-05
      -3.74616575e-05 -3.74616575e-05 -3.74616575e-05 -2.01071962e-05
      -1.87843816e-05 -1.69034574e-05 -2.17706984e-05 -4.86724230e-06
      -4.86724230e-06 -4.86724230e-06 -4.86724230e-06 -4.86724230e-06
      -4.86724230e-06 -2.17706984e-05 -2.67975011e-05 -3.74616575e-05
      -3.74616575e-05 -3.74616575e-05 -1.65782567e-05 -1.07994701e-05
      -5.09905794e-06 0. 0. 0. 0. 0. 0. 0. 0. 0. 0. 0. 0. 0. 0. 0. 0. 0.
      0. 0. 0. 0. 0. 0. 0. 0. 0. 0. 0. 0. 0. 0. 0. 0. 0. 0.
      -4.01366833e-06 -5.09905794e-06 -1.08778431e-05 -1.64587618e-05
      -1.64587618e-05 -1.64587618e-05 -1.64587618e-05 -1.65782567e-05
      -1.65782567e-05 -1.64587618e-05 -1.64587618e-05 -1.65782567e-05
      -1.65782567e-05 -2.49744389e-05 -1.64587618e-05 -1.64587618e-05
      -1.64587618e-05 -1.15915200e-05 -1.02687054e-05 4.09943959e-06
      -1.33745161e-05 -4.86724230e-06 -4.86724230e-06 -4.86724230e-06
      -4.86724230e-06 -4.86724230e-06 -4.86724230e-06 -2.17706984e-05
      -1.43102825e-05 -2.89459822e-05 -1.64587618e-05 -1.64587618e-05
      -1.64587618e-05 -1.64587618e-05 -5.09905794e-06 0. 0. 0. 0. 0. 0.
      0. 0. 0. 0. 0. 0. 0. 0. 0. 0. 0. 0. 0. 0. 0. 0. 0. 0. 0. 0. 0. 0.
      0. 0. 0. 0. 0. 0. 0. -4.01366833e-06 -5.09905794e-06
      -5.09905794e-06 -5.09905794e-06 -5.09905794e-06 -5.09905794e-06
      -5.09905794e-06 -5.09905794e-06 -1.08778431e-05 -5.09905794e-06
      -5.09905794e-06 -1.06799762e-05 -1.06799762e-05 -5.09905794e-06
      -5.09905794e-06 -5.09905794e-06 -5.09905794e-06 -2.31815491e-07
      -5.81273434e-06 1.54591435e-05 4.81311599e-06 3.52894040e-06
      -4.86724230e-06 -4.86724230e-06 -4.86724230e-06 -4.86724230e-06
      -4.86724230e-06 -1.06062944e-05 -5.79460539e-06 -1.06799762e-05
      -1.06799762e-05 -5.09905794e-06 -5.09905794e-06 -5.09905794e-06
      -8.45078830e-07 0. 0. 0. 0. 0. 0. 0. 0. 0. 0. 0. 0. 0. 0. 0. 0. 0.
      0. 0. 0. 0. 0. 0. 0. 0. 0. 0. 0. 0. 0. 0. 0. 0. 0. 0.
      -3.16858927e-06 -5.09905794e-06 -5.09905794e-06 -5.09905794e-06
      -5.09905794e-06 -5.09905794e-06 -5.09905794e-06 -5.09905794e-06
      -5.09905794e-06 -5.09905794e-06 -5.09905794e-06 -5.09905794e-06
      -5.09905794e-06 -5.09905794e-06 -5.09905794e-06 -1.93046844e-06
      2.93677385e-06 -2.31815491e-07 -2.31815491e-07 1.05919016e-05
      1.05919016e-05 9.22935305e-06 -4.86724230e-06 -4.86724230e-06
      -4.86724230e-06 -4.86724230e-06 -4.86724230e-06 -8.87296949e-07
      -1.58193743e-08 -5.09905794e-06 -5.09905794e-06 -5.09905794e-06
      -5.09905794e-06 -5.09905794e-06 -1.93046844e-06 0. 0. 0. 0. 0. 0.
      0. 0. 0. 0. 0. 0. 0. 0. 0. 0. 0. 0. 0. 0. 0. 0. 0. 0. 0. 0. 0. 0.
      0. 0. 0. 0. 0. 0. 0. 0. 0. 0. 0. -8.45078830e-07 -1.93046844e-06
      0. 0. -8.45078830e-07 -8.45078830e-07 -1.93046844e-06
      -1.93046844e-06 -8.45078830e-07 -8.45078830e-07 -8.45078830e-07
      -8.45078830e-07 -8.45078830e-07 4.02216347e-06 4.02216347e-06
      1.16772908e-05 1.05919016e-05 1.50081387e-05 -4.86724230e-06
      -4.86724230e-06 -4.86724230e-06 -4.86724230e-06 -9.70139627e-06
      -8.87296949e-07 5.56509940e-06 -1.93046844e-06 -1.93046844e-06
      -1.93046844e-06 -8.45078830e-07 -8.45078830e-07 -8.45078830e-07 0.
      0. 0. 0. 0. 0. 0. 0. 0. 0. 0. 0. 0. 0. 0. 0. 0. 0. 0. 0. 0. 0. 0.
      0. 0. 0. 0. 0. 0. 0. 0. 0. 0. 0. 0. 0. 0. 0. 0. 0. 0. 0. 0. 0. 0.
      0. 0. 0. 0. 0. 0. 4.86724230e-06 4.86724230e-06 4.86724230e-06
      1.94728127e-05 1.05919016e-05 8.33170589e-07 -4.86724230e-06
      -4.86724230e-06 -4.86724230e-06 -4.86724230e-06 -9.70139627e-06
      4.89148897e-06 8.73368845e-06 -8.45078830e-07 0. 0. 0. 0. 0. 0. 0.
      0. 0. 0. 0. 0. 0. 0. 0. 0. 0. 0. 0. 0. 0. 0. 0. 0. 0. 0. 0. 0. 0.
      0. 0. 0. 0. 0. 0. 0. 0. 0. 0. 0. 0. 0. 0. 0. 0. 0. 0. 0. 0. 0. 0.
      0. 0. 0. 0. 0. 0. 4.86724230e-06 6.19005641e-06 6.72545548e-06
      1.54591435e-05 9.22935305e-06 -4.86724230e-06 -4.86724230e-06
      -7.19978005e-21 -4.86724230e-06 -3.92261063e-06 3.56867440e-06
      8.73368845e-06 0. 0. 0. 0. 0. 0. 0. 0. 0. 0. 0. 0. 0. 0. 0. 0. 0.
      0. 0. 0. 0. 0. 0. 0. 0. 0. 0. 0. 0. 0. 0. 0. 0. 0. 0. 0. 0. 0. 0.
      0. 0. 0. 0. 0. 0. 0. 0. 0. 4.86724230e-06 4.86724230e-06 0.
      4.86724230e-06 4.86724230e-06 0. 0. 4.86724230e-06 4.86724230e-06
      4.86724230e-06 4.86724230e-06 6.19005641e-06 6.72545548e-06
      9.68035783e-06 1.40965958e-05 -4.86724230e-06 -7.19978005e-21
      -7.19978005e-21 -7.19978005e-21 -4.83415397e-06 5.93956156e-06
      -2.31815491e-07 0. 0. 0. 0. 0. 0. 0. 0. 0. 0. 0. 0. 0. 0. 0. 0. 0.
      0. 0. 0. 0. 0. 0. 0. 0. 0. 0. 0. 0. 0. 0. 0. 0. 0. 0. 0. 0. 0. 0.
      0. 0. 0. 0. 0. 0. 0. 0. 4.86724230e-06 4.86724230e-06
      4.86724230e-06 4.86724230e-06 4.86724230e-06 4.86724230e-06
      4.86724230e-06 4.86724230e-06 4.86724230e-06 4.86724230e-06
      4.86724230e-06 4.86724230e-06 6.19005641e-06 7.39768939e-06
      2.11383776e-05 1.40965958e-05 -7.19978005e-21 -7.19978005e-21
      -7.19978005e-21 -7.19978005e-21 -4.83415397e-06 5.93956156e-06
      8.56322970e-07 4.86724230e-06 0. 0. 0. 0. 0. 0. 0. 0. 0. 0. 0. 0.
      0. 0. 0. 0. 0. 0. 0. 0. 0. 0. 0. 0. 0. 0. 0. 0. 0. 0. 0. 0. 0. 0.
      0. 0. 0. 0. 0. 0. 0. 0. 0. 0. 0. 0. 0. 4.86724230e-06
      4.86724230e-06 4.86724230e-06 4.86724230e-06 4.86724230e-06
      4.86724230e-06 4.86724230e-06 4.86724230e-06 4.86724230e-06
      4.86724230e-06 4.86724230e-06 1.68542138e-05 1.97131230e-05
      1.63042223e-05 1.40965958e-05 -7.19978005e-21 -7.19978005e-21
      -7.19978005e-21 -7.19978005e-21 -4.83415397e-06 3.97994518e-06
      1.03128477e-05 4.02216347e-06 0. 0. 0. 0. 0. 0. 0. 0. 0. 0. 0. 0.
      0. 0. 0. 0. 0. 0. 0. 0. 0. 0. 0. 0. 0. 0. 0. 0. 0. 0. 0. 0. 0. 0.
      0. 0. 0. 0. 0. 0. 0. 0. 0. 0. 0. 0. 0. 0. 0. 0. 0. 0. 0. 0. 0. 0.
      0. 0. 0. 1.48458803e-05 1.54260561e-05 2.17165725e-05
      1.60161599e-05 7.61997717e-06 7.61997717e-06 1.60161599e-05
      1.60161599e-05 -3.38365226e-06 5.56509940e-06 0. 0. 0. 0. 0. 0. 0.
      0. 0. 0. 0. 0. 0. 0. 0. 0. 0. 0. 0. 0. 0. 0. 0. 0. 0. 0. 0. 0. 0.
      0. 0. 0. 0. 0. 0. 0. 0. 0. 0. 0. 0. 0. 0. 0. 0. 0. 0. 0. 0. 0. 0.
      0. 0. 0. 0. 0. 0. 0. 0. 0. 3.81916971e-06 1.54260561e-05
      2.17165725e-05 1.60161599e-05 1.60161599e-05 1.60161599e-05
      1.60161599e-05 3.94685685e-06 -3.38365226e-06 8.73368845e-06
      -1.08538950e-06 0. 0. 0. 0. 0. 0. 0. 0. 0. 0. 0. 0. 0. 0. 0. 0. 0.
      0. 0. 0. 0. 0. 0. 0. 0. 0. 0. 0. 0. 0. 0. 0. 0. 0. 0. 0. 0. 0. 0.
      0. 0. 0. 0. 0. 0. 0. 0. 0. 0. 0. 0. 0. 0. 0. 0. 0. 0. 0.
      2.49635536e-06 3.81916971e-06 1.04696583e-05 2.05089400e-05
      1.61356547e-05 1.61356547e-05 1.61356547e-05 1.60161599e-05
      1.45050171e-06 1.19181334e-06 8.73368845e-06 -1.08538950e-06 0. 0.
      0. 0. 0. 0. 0. 0. 0. 0. 0. 0. 0. 0. 0. 0. 0. 0. 0. 0. 0. 0. 0. 0.
      0. 0. 0. 0. 0. 0. 0. 0. 0. 0. 0. 0. 0. 0. 0. 0. 0. 0. 0. 0. 0. 0.
      0. 0. 0. 0. 0. 0. 0. 0. 0. 0. 0. 0. 0. 2.49635536e-06
      -3.16858927e-06 1.65127653e-06 8.87444639e-06 2.90368553e-06
      1.60641976e-05 6.73451495e-06 4.23815936e-06 9.81907851e-06 0. 0.
      0. 0. 0. 0. 0. 0. 0. 0. 0. 0. 0. 0. 0. 0. 0. 0. 0. 0. 0. 0. 0. 0.
      0. 0. 0. 0. 0. 0. 0. 0. 0. 0. 0. 0. 0. 0. 0. 0. 0. 0. 0. 0. 0. 0.
      0. 0. 0. 0. 0. 0. 0. 0. 0. 0. 0. 0. 0. 0. 0. 0. 0. 0. 0. 0. 0. 0.
      0. 0. 0. 0. 0. 0. 0. 0. 0. 0. 0. 0. 0. 0. 0. 0. 0. 0. 0. 0. 0. 0.
      0. 0. 0. 0. 0. 0. 0. 0. 0. 0. 0. 0. 0. 0. 0. 0. 0. 0. 0. 0. 0. 0.
      0. 0. 0. 0. 0. 0. 0. 0. 0. 0. 0. 0. 0. 0. 0. 0. 0. 0. 0. 0. 0. 0.
      0. 0. 0. 0. 0. 0. 0. 0. 0. 0. 0. 0. 0. 0. 0. 0. 0. 0. 0. 0. 0. 0.
      0. 0. 0. 0. 0. 0. 0. 0. 0. 0. 0. 0. 0. 0. 0. 0. 0. 0. 0. 0. 0. 0.
      0. 0. 0. 0. 0. 0. 0. 0. 0. 0. 0. 0. 0. 0. 0. 0. 0. 0. 0. 0. 0. 0.
      0. 0. 0. 0. 0. 0. 0. 0. 0. 0. 0. 0. 0. 0. 0. 0. 0. 0. 0. 0. 0. 0.
      0. 0. 0. 0. 0. 0. 0. 0. 0. 0. 0. 0. 0. 0. 0. 0. 0. 0. 0. 0. 0. 0.
      0. 0. 0. 0. 0. 0. 0. 0. 0. 0. 0. 0. 0. 0. 0. 0. 0. 0. 0. 0. 0. 0.
      0. 0. 0. 0. 0. 0. 0. 0. 0. 0. 0. 0. 0. 0. 0. 0. 0. 0. 0. 0. 0. 0.
      0. 0. 0. 0. 0. 0. 0. 0. 0. 0. 0. 0. 0. 0. 0. 0. 0. 0. 0. 0. 0. 0.
      0. 0. 0. 0. 0. 0. 0. 0. 0. 0. 0. 0. 0. 0. 0. 0. 0. 0. 0. 0. 0. 0.
      0. 0. 0. 0. 0. 0. 0. 0. 0. 0. 0. 0. 0. 0. 0. 0. 0. 0. 0. 0. 0. 0.
      0. 0. 0. 0. 0. 0. 0. 0. 0. 0. 0. 0. 0. 0. 0. 0. 0. 0. 0. 0. 0. 0.
      0. 0. 0. 0. 0. 0. 0. 0. 0. 0. 0. 0. 0. 0. 0. 0. 0. 0. 0. 0. 0. 0.
      0. 0. 0. 0. 0. 0. 0. 0. 0. 0. 0. 0. 0. 0. 0. 0. 0. 0. 0. 0. 0. 0.
      0. 0. 0. 0. 0. 0. 0. 0. 0. 0. 0. 0. 0. 0. 0. 0. 0. 0. 0. 0. 0. 0.
      0. 0. 0. 0. 0. 0. 0. 0. 0. 0. 0. 0. 0. 0. 0. 0. 0. 0. 0. 0. 0. 0.
      0. 0. 0. 0. 0. 0. 0. 0. 0. 0. 0. 0. 0. 0. 0. 0. 0. 0. 0. 0. 0. 0.
      0. 0. 0. 0. 0. 0. 0. 0. 0. 0. 0. 0. 0. 0. 0. 0. 0. 0. 0. 0. 0. 0.
      0. 0. 0. 0. 0. 0. 0. 0. 0. 0. 0. 0. 0. 0. 0. 0. 0. 0. 0. 0. 0. 0.
      0. 0. 0. 0. 0. 0. 0. 0. 0. 0. 0. 0. 0. 0. 0. 0. 0. 0. 0. 0. 0. 0.
      0. 0. 0. 0. 0. 0. 0. 0. 0. 0. 0. 0. 0. 0. 0. 0. 0. 0. 0. 0. 0. 0.
      0. 0. 0. 0. 0. 0. 0. 0. 0. 0. 0. 0. 0. 0. 0. 0. 0. 0. 0. 0. 0. 0.
      0. 0. 0. 0. 0. 0. 0. 0. 0. 0. 0. 0. 0. 0. 0. 0. 0. 0. 0. 0. 0. 0.
      0. 0. 0. 0. 0. 0. 0. 0. 0. 0. 0. 0. 0. 0. 0. 0. 0. 0. 0. 0. 0. 0.
      0. 0. 0. 0. 0. 0. 0. 0. 0. 0. 0. 0. 0. 0. 0. 0. 0. 0. 0. 0. 0. 0.
      0. 0. 0. 0. 0. 0. 0. 0. 0. 0. 0. 0. 0. 0. 0. 0. 0. 0. 0. 0. 0. 0.
      0. 0. 0. 0. 0. 0. 0. 0. 0. 0. 0. 0. 0. 0. 0. 0. 0. 0. 0. 0. 0. 0.
      0. 0. 0. 0. 0. 0. 0. 0. 0. 0. 0. 0. 0. 0. 0. 0. 0. 0. 0. 0. 0. 0.
      0. 0. 0. 0. 0. 0. 0. 0. 0. 0. 0. 0. 0. 0. 0. 0. 0. 0. 0. 0. 0. 0.
      0. 0. 0. 0. 0. 0. 0. 0. 0. 0. 0. 0. 0. 0. 0. 0. 0. 0. 0. 0. 0. 0.
      0. 0. 0. 0. 0. 0. 0. 0. 0. 0. 0. 0. 0. 0. 0. 0. 0. 0. 0. 0. 0. 0.
      0.</_>
    <_>
      0. 0. 0. 0. 0. 0. 0. 0. 0. 0. 0. 0. 0. 0. 0. 0. 0. 0. 0. 0. 0. 0.
      0. 0. 0. 0. 0. 0. 0. 0. 0. 0. 0. 0. 0. 0. 0. 0. 0. 0. 0. 0. 0. 0.
      0. 0. 0. 0. 0. 0. 0. 0. 0. 0. 0. 0. 0. 0. 0. 0. 0. 0. 0. 0. 0. 0.
      0. 0. 0. 0. 0. 0. 0. 0. 0. 0. 0. 0. 0. 0. 0. 0. 0. 0. 0. 0. 0. 0.
      0. 0. 0. 0. 0. 0. 0. 0. 0. 0. 0. 0. 0. 0. 0. 0. 0. 0. 0. 0. 0. 0.
      0. 0. 0. 0. 0. 0. 0. 0. 0. 0. 0. 0. 0. 0. 0. 0. 0. 0. 0. 0. 0. 0.
      0. 0. 0. 0. 0. 0. 0. 0. 0. 0. 0. 0. 0. 0. 0. 0. 0. 0. 0. 0. 0. 0.
      0. 0. 0. 0. 0. 0. 0. 0. 0. 0. 0. 0. 0. 0. 0. 0. 0. 0. 0. 0. 0. 0.
      0. 0. 0. 0. 0. 0. 0. 0. 0. 0. 0. 0. 0. 0. 0. 0. 0. 0. 0. 0. 0. 0.
      0. 0. 0. 0. 0. 0. 0. 0. 0. 0. 0. 0. 0. 0. 0. 0. 0. 0. 0. 0. 0. 0.
      0. 0. 0. 0. 0. 0. 0. 0. 0. 0. 0. 0. 0. 0. 0. 0. 0. 0. 0. 0. 0. 0.
      0. 0. 0. 0. 0. 0. 0. 0. 0. 0. 0. 0. 0. 0. 0. 0. 0. 0. 0. 0. 0. 0.
      0. 0. 0. 0. 0. 0. 0. 0. 0. 0. 0. 0. 0. 0. 0. 0. 0. 0. 0. 0. 0. 0.
      0. 0. 0. 0. 0. 0. 0. 0. 0. 0. 0. 0. 0. 0. 0. 0. 0. 0. 0. 0. 0. 0.
      0. 0. 0. 0. 0. 0. 0. 0. 0. 0. 0. 0. 0. 0. 0. 0. 0. 0. 0. 0. 0. 0.
      0. 0. 0. 0. 0. 0. 0. 0. 0. 0. 0. 0. 0. 0. 0. 0. 0. 0. 0. 0. 0. 0.
      0. 0. 0. 0. 0. 0. 0. 0. 0. 0. 0. 0. 0. 0. 0. 0. 0. 0. 0. 0. 0. 0.
      0. 0. 0. 0. 0. 0. 0. 0. 0. 0. 0. 0. 0. 0. 0. 0. 0. 0. 0. 0. 0. 0.
      0. 0. 0. 0. 0. 0. 0. 0. 0. 0. 0. 0. 0. 0. 0. 0. 0. 0. 0. 0. 0. 0.
      0. 0. 0. 0. 0. 0. 0. 0. 0. 0. 0. 0. 0. 0. 0. 0. 0. 0. 0. 0. 0. 0.
      0. 0. 0. 0. 0. 0. 0. 0. 0. 0. 0. 0. 0. 0. 0. 0. 0. 0. 0. 0. 0. 0.
      0. 0. 0. 0. 0. 0. 0. 0. 0. 0. 0. 0. 0. 0. 0. 0. 0. 0. 0. 0. 0. 0.
      0. 0. 0. 0. 0. 0. 0. 0. 0. 0. 0. 0. 0. 0. 0. 0. 0. 0. 0. 0. 0. 0.
      0. 0. 0. 0. 0. 0. 0. 0. 0. 0. 0. 0. 0. 0. 0. 0. 0. 0. 0. 0. 0. 0.
      0. 0. 0. 0. 0. 0. 0. 0. 0. 0. 0. 0. 0. 0. 0. 0. 0. 0. 0. 0. 0. 0.
      0. 0. 0. 0. 0. 0. 0. 0. 0. 0. 0. 0. 0. 0. 0. 0. 0. 0. 0. 0. 0. 0.
      0. 0. 0. 0. 0. 0. 0. 0. 0. 0. 0. 0. 0. 0. 0. 0. 0. 0. 0. 0. 0. 0.
      0. 0. 0. 0. 0. 0. 0. 0. 0. 0. 0. 0. 0. 0. 0. 0. 0. 0. 0. 0. 0. 0.
      0. 0. 0. 0. 0. 0. 0. 0. 0. 0. 0. 0. 0. 0. 0. 0. 0. 0. 0. 0. 0. 0.
      0. 0. 0. 0. 0. 0. 0. 0. 0. 0. 0. 0. 0. 0. 0. 0. 0. 0. 0. 0. 0. 0.
      0. 0. 0. 0. 0. 0. 0. 0. 0. 0. 0. 0. 0. 0. 0. 0. 0. 0. 0. 0. 0. 0.
      0. 0. 0. 0. 0. 0. 0. 0. 0. 0. 0. 0. 0. 0. 0. 0. 0. 0. 0. 0. 0. 0.
      0. 0. 0. 0. 0. 0. 0. 0. 0. 0. 0. 0. 0. 0. 0. 0. 0. 0. 0. 0. 0. 0.
      0. 0. 0. 0. 0. 0. 0. 0. 0. 0. 0. 0. 0. 0. 5.41276131e-06
      7.15017450e-06 6.84839915e-06 0. 0. 0. 0. 0. 0. 0. 0. 0. 0. 0. 0.
      0. 0. 0. 0. 0. 0. 0. 0. 0. 0. 0. 0. 0. 0. 0. 0. 0. 0. 0. 0. 0. 0.
      0. 0. 0. 0. 0. 0. 0. 0. 0. 0. 0. 0. 0. 0. 0. 0. 0. -1.15855175e-06
      -1.69447208e-06 -1.69447208e-06 -3.89360457e-06 -4.44428906e-06
      -7.24457459e-06 -7.24457459e-06 -6.08602295e-06 -6.08602295e-06
      -5.55010274e-06 -6.08602295e-06 -7.24457459e-06 -7.24457459e-06
      -2.91297238e-06 6.73035038e-06 4.99293719e-06 2.22082826e-06
      2.22082826e-06 3.37938013e-06 3.37938013e-06 1.94374229e-06
      -6.08602295e-06 -6.08602295e-06 -2.19222926e-07 -3.35097002e-06 0.
      0. 0. 0. 0. 0. 0. 0. 0. 0. 0. 0. 0. 0. 0. 0. 0. 0. 0. 0. 0. 0. 0.
      0. 0. 0. 0. 0. 0. 0. 0. 0. 0. 0. 0. 0. 0. 0. 0. 0. 0. 0. 0. 0.
      -1.15855175e-06 -3.35768436e-06 -8.01448186e-06 -8.01448186e-06
      -8.01448186e-06 -8.01448186e-06 -8.01448186e-06 -8.01448186e-06
      -8.01448186e-06 -8.01448186e-06 -8.01448186e-06 -8.01448186e-06
      -8.01448186e-06 -4.84143129e-06 1.45092088e-06 2.60947263e-06
      4.71226986e-06 4.71226986e-06 4.71226986e-06 4.71226986e-06
      2.00160548e-06 2.00160548e-06 -8.01448186e-06 -6.85593022e-06
      -4.65679796e-06 -3.57019303e-06 0. 0. 0. 0. 0. 0. 0. 0. 0. 0. 0.
      0. 0. 0. 0. 0. 0. 0. 0. 0. 0. 0. 0. 0. 0. 0. 0. 0. 0. 0. 0. 0. 0.
      0. 0. 0. 0. 0. 0. 0. 0. 0. 0. -1.15855175e-06 -1.15855175e-06
      -4.44428906e-06 -8.01448186e-06 -1.25417955e-05 -1.85121171e-05
      -1.25417955e-05 -1.25417955e-05 -1.25417955e-05 -1.25417955e-05
      -1.25417955e-05 -1.60124891e-05 -2.22911717e-06 -2.22911717e-06
      1.45092088e-06 1.45092088e-06 1.84956164e-07 1.84956164e-07
      4.71226986e-06 4.71226986e-06 1.84956164e-07 1.45092088e-06
      -2.86491940e-07 -8.01448186e-06 -8.01448186e-06 -6.30524573e-06
      -3.57019303e-06 0. 0. 0. 0. 0. 0. 0. 0. 0. 0. 0. 0. 0. 0. 0. 0. 0.
      0. 0. 0. 0. 0. 0. 0. 0. 0. 0. 0. 0. 0. 0. 0. 0. 0. 0. 0. 0. 0. 0.
      0. 0. 0. 0. -1.15855175e-06 -1.15855175e-06 -1.23225727e-05
      -2.77681756e-05 -2.77681756e-05 -2.77681756e-05 -2.77681756e-05
      -2.77681756e-05 -2.77681756e-05 -2.19828107e-05 -2.19828107e-05
      -2.19828107e-05 -1.27267522e-05 -1.39530448e-05 -1.83027714e-05
      -9.04671379e-06 -1.50414235e-05 -5.78536492e-06 -5.78536492e-06
      -5.78536492e-06 1.84956164e-07 -1.83027714e-05 1.45092088e-06
      -8.01448186e-06 -8.01448186e-06 -7.46379783e-06 -3.57019303e-06 0.
      0. 0. 0. 0. 0. 0. 0. 0. 0. 0. 0. 0. 0. 0. 0. 0. 0. 0. 0. 0. 0. 0.
      0. 0. 0. 0. 0. 0. 0. 0. 0. 0. 0. 0. 0. 0. 0. 0. 0. 0. 0. 0.
      -1.15855175e-06 -2.24515657e-06 -2.75489529e-05 -2.77681756e-05
      -2.77681756e-05 -2.77681756e-05 -2.77681756e-05 -2.77681756e-05
      -2.77681756e-05 -2.19828107e-05 -2.19828107e-05 -1.12911139e-05
      -3.26134887e-06 -3.26134887e-06 -1.25174074e-05 -1.50414235e-05
      -1.50414235e-05 -1.50414235e-05 -1.50414235e-05 -1.50414235e-05
      -1.50414235e-05 -1.83027714e-05 -2.86491940e-07 -8.01448186e-06
      -8.01448186e-06 -8.01448186e-06 -2.19222926e-07 0. 0. 0. 0. 0. 0.
      0. 0. 0. 0. 0. 0. 0. 0. 0. 0. 0. 0. 0. 0. 0. 0. 0. 0. 0. 0. 0. 0.
      0. 0. 0. 0. 0. 0. 0. 0. 0. 0. 0. 0. 0. 0. 0. -5.68586529e-06
      -2.14629290e-05 -2.75489529e-05 -2.77681756e-05 -2.77681756e-05
      -2.77681756e-05 -2.77681756e-05 -1.27267522e-05 -1.27267522e-05
